Weights between layer 0 and layer 1:
[[-0.05967160445369143, 0.14380043889147923, 0.21161507102880123, 0.06259496189397155, -0.08611716747211236, -0.22438351329905573, -0.13801121674385866, 0.18087475776788414, 0.06591307664413669, 0.17930046747932302, -0.22637134803683778, 0.24592797372232303, 0.07362774147566879, -0.04857723621838435, -0.14423058013345177, -0.058431540852844535, -0.08281372998991307, -0.011802563956982749, -0.12308813238369287, 0.07472231513459449, 0.07501283436653419, -0.23529684964152026, -0.10881288836680666, -0.05395789779383876, -0.03495087985916506, 0.1411669169333737, -0.11094837243089439, -0.06780455168585332, 0.144260191162991, -0.15705484234451406, 0.034562517736462406, -0.24541370177969288, -0.2893251263667132, 0.3040734582212934, 0.38199404566265466, 0.15020985328997746, 0.06276179560413545, -0.2899911874549514, 0.05367081634868471, -0.10257659477239901, -0.2902032837729686, 0.034693720422034904, -0.18441509035920053, 0.13531561968540923, -0.1946186182225766, 0.2173002917828718, -0.06451532304974063, 0.05595541129290259, -0.02654157336652621, -0.18790324574617362, 0.4894581098936313, 0.022897662566645015, 0.27536666488299616, 0.31798995170312383, 0.09925072557969021, 0.25514918807434606, -0.27425640330019063, -0.15139231316771287, -0.20688948648009448, 0.029981932592777236], [0.01308000442380326, -0.2155650076422446, 0.21874128661329678, -0.04325127980780676, 0.06058965841389322, -0.05144332719953497, -0.06815310861108947, 0.132293613112487, -0.22266128789966128, 0.3196621379648816, 0.10996898200284647, -0.05186798148452392, -0.2850036213991481, 0.303150869785416, 0.27506058068543005, 0.12909140256576848, 0.1647512293589202, -0.10576816184748222, -0.13107124666007136, 0.01931141013039745, 0.23698412050611084, 0.040963770088446795, -0.0735981955356349, -0.1480169705427416, -0.10149266203187204, -0.017629252116619986, 0.112987121849597, 0.008430145096743407, 0.2925639122641352, -0.08788448554556218, -0.19788791131194813, 0.07642821102096602, 0.10685096856738556, 0.1010998210264623, 0.2571698642521417, 0.1298691805086949, 0.10257312031930212, -0.00486926842621697, -0.3112672949439265, -0.23247391312670837, -0.3047759438829639, 0.008854350148029187, -0.14329728799444236, -0.09233074478027965, 0.1980141804772327, 0.03122442539652203, 0.08677883649183622, 0.19697087925332768, 0.0006539854819592851, -0.19576335024836933, -0.010348547274963099, -0.20399659237025172, 0.24982253148550598, 0.1644190504352186, 0.12693805776903186, 0.1470366278241434, -0.005667721115875051, -0.15563293308538786, 0.2982723086859541, 0.20691993658596367], [0.22427174057922802, 0.21893214253142296, -0.1163643886741251, -0.15864116879754686, -0.1466937814949811, 0.05105349012915851, 0.3275007081793462, 0.2634574703697716, -0.14136572112912085, 0.01908551107024462, -0.04863664088576325, -0.20221297677007954, -0.18578257772919124, -0.22978555226488934, 0.11576711960912017, -0.004545218171603542, 0.18755356913421964, 0.15991104048515317, -0.03290237166266276, 0.32005038032726374, 0.24999610711840592, -0.11863699981216204, 0.1245335324713619, -0.2062858943944019, -0.1752261133264025, -0.3522368456687067, 0.17302162757748185, -0.07968451900346503, -0.20133010569250473, 0.1025461239444598, 0.14520081231653156, -0.11148108294257278, -0.18594372375027732, -0.06984120708460342, 0.2902279784227336, -0.23361623101867363, 0.13284548663362428, 0.03467725140486332, -0.06752139898448528, 0.124816952617428, -0.0951323658722529, 0.1981299219834692, 0.03698118152129865, 0.04651008610726724, -0.1621054851068111, 0.16802839219388152, -0.12767909458517498, -0.09720164131869523, -0.20623041886290516, 0.02865408598117751, 0.03883163570347694, -0.2508909566063297, -0.014841902882728549, -0.0036259486013882182, 0.05916240521374884, -0.1146865377439101, 0.03669180977731507, -0.06469447240475217, 0.10723976975246868, -0.15134505454997077], [0.018794434946197647, -0.12777553140007067, 0.28337861019292376, 0.1772910457132816, -0.1547536777988148, 0.0020003142041130372, 0.17008350858613586, -0.08046480165402936, 0.07455638507049804, -0.17912177294147064, -0.19077185150484732, 0.14992314989953326, 0.22692814524375887, 0.0766349410135547, -0.02171885418035224, -0.2700062932299577, 0.1721859970741117, 0.36680306293481296, 0.28339421404603055, 0.3478480131362316, 0.061024582196157605, -0.29853997533884774, -0.05008567531511759, 0.2777935248356449, -0.0240115507799471, -0.18721436474414152, -0.2800097940943608, 0.038462096235172535, -0.18350889144834726, -0.21998993878311834, 0.06854372855289449, 0.2622163775754905, 0.25543210048211373, -0.1579001421367465, 0.10415406070935376, -0.04944487325256589, -0.16435810925534808, 0.2785217371460292, 0.14032826593947587, 0.276296756814431, 0.17966230144798653, 0.09868420477717273, -0.10219018214720194, -0.13504478445142115, 0.017985228129627252, -0.12658600841976686, 0.386587546757101, 0.11174946406606232, 0.19747552857805556, 0.015334507450664957, 0.1353484742510419, -0.042096167631436414, -0.06870648493651875, 0.08395840145652747, -0.3688040232917973, 0.13736280615173857, -0.16406732088503362, -0.2268372063375264, 0.16968981155261165, -0.08923502414978787], [0.21011270232264218, 0.20530323165582706, 0.1635894867003917, -0.0751175839994469, -0.27711199489481414, 0.1759122794508886, -0.03788931939138669, 0.24495284940228604, 0.2116937618245202, 0.18312188324027603, -0.10454253642693508, -0.13594446968786156, 0.17906316462387734, -0.13775982683574206, -0.10643478574313195, 0.041746537041756536, 0.15971469864832374, 0.06276218361442973, -0.00046820264694140824, -0.16479791913237862, 0.07790089955837225, 0.23637094780237503, -0.1910441182548981, 0.015191942964011319, 0.1674200573722329, 0.17175709406964754, 0.14422128177282306, 0.0754535602716436, -0.005017313969235846, -0.08868031181994833, 0.10863190704841443, 0.15946568384109958, 0.18778756631495253, 0.1999267090023404, -0.0177846278077271, -0.04420174591812468, 0.13124457324201452, 0.0828091460032052, 0.07830467454223285, 0.11032671979926097, 0.17579436566139406, -0.054359577632701016, -0.2457880125214921, -0.1117374407134844, 0.06924253600494039, -0.18391084308737501, 0.02253672555674589, 0.0661790225524627, -0.13871864182448615, 0.04154412545466429, -0.1789026311962566, -0.2123808062029651, 0.14842681979763647, -0.08072979837520246, -0.17291855179668283, 0.021868185819930972, 0.12341664750455382, -0.1226171427171256, 0.004127477316500012, -0.4088511220261217], [-0.22200057040125273, 0.06639227072688016, -0.004282224746947335, 0.09119019716465201, 0.08871663161454513, 0.24529018745579237, 0.08194830088577831, -0.07097943480810456, 0.13008554036758996, -0.21254786447276183, -0.03938217233865358, -0.28414160705960295, -0.22250751486589268, 0.26457139754252196, 0.20007682323345818, 0.031609173445611524, 0.043439016030192054, -0.26989679204613215, -0.3160888821485906, 0.07704362498072925, 0.012687156789661747, 0.07336857510641139, 0.0864018643750543, -0.0696010793311864, 0.19993993277173755, 0.1449833498233797, 0.08568604335576359, 0.11003689573193595, -0.05304936395449498, -0.2501824809458366, -0.14187605409800627, 0.1413469850723067, -0.18635753105725097, -0.2148346685863605, -0.17440793618254927, -0.18479766951925347, 0.20933563662719554, 0.05534355896386487, -0.0919511450708061, -0.14126892908501845, 0.02430094466181744, 0.00021093270484051057, -0.1445546630232439, -0.0747293425173323, -0.13731778642693998, 0.012470303207651294, 0.04441144698138381, -0.07312050311283048, -0.07735793188458628, 0.05734052736662709, 0.028513560405265703, 0.15239845912687247, 0.03410983392839618, -0.2945871805098454, -0.20427225646756714, 0.03296384619254651, -0.44902488210241803, 0.026381457264475328, 0.165261428575734, 0.11239578499747653], [-0.01729544390878532, 0.09936860082069145, -0.034151396092432854, 0.020288921798676515, 0.16847692106259854, -0.06689900097660754, 0.18209658870224385, 0.17063706934373263, -0.1404306689749655, -0.1448509773741007, -0.1904026888283765, -0.039247436177372176, -0.11987831603917233, 0.0652270860337423, -0.23562422307899816, -0.08453765628977489, 0.16841963434224327, -0.4440692382812151, 0.12677649957970166, -0.09826932300866142, -0.18027100092906725, 0.09088451395350494, 0.023222449487370254, 0.16854049334765622, 0.10900816614197673, 0.14975896083268198, -0.08580533910249609, -0.19804109383889734, 0.08743736504983102, 0.14233164768889683, 0.2331384819118718, -0.01898579018762414, 0.023276005863059095, 0.1327489021919796, 0.019750967754837784, 0.1874087372636745, 0.18964548449736496, 0.005387699771412105, 0.12599447508468317, 0.15675598769096757, -0.13599454827757226, 0.15666399421566715, -0.038742552313383236, 0.15273295404426027, -0.0758682532270733, 0.14442914877296073, -0.03428445297607995, -0.13714078981258654, 0.22948853022118654, -0.3112097615788734, -0.07376621904299553, 0.2250370047154673, 0.20647704086946442, 0.03282003373610628, 0.08539575013330723, -0.02262062709986935, -0.04113170561554333, -0.092210567263493, 0.08936706403492196, 0.11111422557588065], [0.15330828143928074, 0.17530107766633812, -0.24450597247066147, 0.14525277126037467, -0.2315212123036525, -0.045765339860254814, 0.08951356402965048, 0.2085441541071007, 0.0026723427974801963, -0.1445016482032431, -2.7832765655487584e-15, -0.20128316384803735, -0.21341364333374505, -0.15729992616603936, -0.922755765048863, 0.2090257543782591, -0.18996677252493754, -0.3802344840385366, 0.29290515657504956, -0.28630101740211383, -0.4437808697060999, 0.21788230602877792, 0.4207863591670675, -0.07367847763594382, 0.0503158677029888, 0.3669703363133918, 0.3493736250668652, 0.39906712513541215, -0.11669173580110108, -0.26031492340107587, 0.0493289310902459, -0.014875278280058569, -0.1626990457088376, 0.31167022977946257, -0.07366810240968952, 0.08150402868071846, -0.20046182363833534, 0.1723857106035011, -0.5047942311738254, -0.5251683609550993, -0.1738932218872892, 0.09511429354466533, 0.3866517171267143, -0.028363545655529825, 0.36211613803500364, 0.1328701777703647, 0.0578518171974179, 0.22622912076818077, -0.5481622990806673, -0.3096843234300121, -0.24797163355354956, 0.05074065251920048, -0.0641618668902716, 0.04860156665997848, -0.37350373252304087, 0.4081680163411166, -0.5921326432710633, 7.574964428661345e-39, 0.17545806859899707, 0.09252880571912105], [0.0013585685355443984, 0.12239713148537765, 0.14869059631972276, -0.3167799364951528, 0.3876352606823591, 0.18601560775320986, -0.064758662705265, -0.04085523162679369, 0.30871966170194715, 0.2727587208564909, 2.4253105586916055e-39, 0.14244036485064138, -0.09222380205594258, -0.31994872215738757, 0.12977462974489137, -0.36889870336235275, 0.2120697117785762, 0.07777058538901563, 0.2898051679112625, 0.30354204918892075, 0.081392186183618, -0.021841570659143297, -0.21502500789535958, 0.18378446335828222, -0.1673279081124722, -0.09613525625584783, 0.045777185968168314, 0.09565230249804431, 0.04921926601488571, 0.39812939556390636, -0.03642787509111126, -0.325449620165428, 0.48359481919239744, 0.20251800956516325, -0.17300873154913193, -0.07917627987561066, 0.07957519987454909, 0.08712978185070744, 0.028088915014224374, -0.12889564038658408, 0.008798442647900051, 0.2322655879872754, 0.2835587106117813, 0.16901699278564034, -0.004522011424140471, 0.1078812841078469, 0.02646035471913697, -0.17893979619364578, -0.6842995574377301, 0.13841705073943145, -0.09385467318477823, 0.23581157409784195, 0.031966317044491196, 0.22959895099140215, 0.14504076666387122, 0.14201437497592095, 0.10850559831192398, -1.7611775575795127e-21, 0.24559115223354333, -0.09109853733477052], [0.1162243335367316, 0.03960637278653024, -0.025545104520345738, 0.7078387653010481, -0.20061271147363055, 0.08327367174625419, -0.13653058900187529, -0.036300178500302066, -0.22657278432084374, -0.06509086731806527, -0.003072852700574819, -0.10533365723678918, 0.3854780411666682, 0.040733330963011544, -0.32122454890486823, 0.03409042750679162, -0.2931313517150202, -0.397376167193035, 0.11158418748413347, -0.3907703185497492, -0.26060119797508263, -0.31836787345775003, 0.27993546007123726, -0.11417610722331249, -0.5162281033871778, -0.29147238604731246, -0.3157141708282586, -0.24549140389561647, -0.26004431463936967, -0.036092511791836014, 0.16374310882718104, 0.028646621274944092, 0.19058878474928306, -0.11830678602226628, 0.15636002416846162, 0.12671421652856824, -0.17921898934925345, 0.2967973456736111, 0.14316660459398006, 0.14966711607563035, 0.5294195629264546, 0.6584728379093324, 8.046810108838263e-42, 0.4251420858341492, 0.21808214286551572, 0.5261288353348086, 0.08292164573061289, 0.2221277677228069, 0.38611334128863706, -0.17230165420566323, -0.4281808281719944, -0.4643740118532913, -0.3879160777790023, 0.2171404022120754, 0.7105855076254572, 0.002519158554680504, 0.13783609158826116, -1.345028053396572e-16, -0.029401964856861224, -0.4318694229745077], [-0.3621498674891297, -0.029020032650653303, 0.08048662279520902, -2.6092035624686174e-13, -2.0851607558418048e-14, 0.0518528993919858, -0.3037726205866554, -0.3946819229527074, 0.039551494684162324, -0.2512081091914752, -6.909316989850315e-12, 4.187253005641714e-18, 0.32510357107643895, -0.28572075314280787, 1.2649165457349306e-14, -0.09192073181311623, 0.11020378476857337, -0.03698618139375364, 0.5471736194495542, 0.22084152726459544, -0.4197635735874708, -0.3834114190621236, 0.3957503903617132, 0.2724052387632875, 0.11047276265405633, -0.31996583736814, -0.37448743458102784, 0.4995566353430379, -0.7015944865681027, -5.61525629329188e-22, 0.34205278938326356, 0.5469246357043877, 0.38561442655999695, -0.30397204277397394, -0.21119017711684418, -0.03975485079956326, -0.23334276793713146, 0.2443884286290791, 0.23092299335145502, 0.25225425407840907, 0.23273107056423262, 0.509749024401439, -0.1152130004267647, 0.34667568674984184, 0.24427735912258247, 0.024915373109680526, 0.40995567012896383, 0.3480505914717668, 0.29985689785259806, -0.01888698620355497, -0.4238208345719567, 0.1494528816971188, -0.2990924555615503, 0.30995002491175105, 1.2048359120366603e-37, -0.18747661302956958, 0.052508387434019456, 8.985944785256134e-33, 0.4014053908684428, -1.182813997707822e-37], [-0.4174266194634249, -0.048160216121765145, 0.35225582247306086, -0.4453118708547844, -0.01933508656279335, -0.4998267019662214, -0.24123228658501825, -0.4854294889600631, -0.36597874696384053, 0.07635030969208055, -1.1946751097109986e-16, 0.07233398378900482, -0.2924732925331294, -0.031164817931733053, 0.0843340256059471, 0.44943670158544474, -0.5532570278567578, -0.2003972675092895, 0.2731605523589655, 0.4865882808532051, -0.03225290334866193, -0.408129765712629, -0.3694540151285673, 0.3732472910227813, 0.25967800296476923, 0.41996690838995215, -0.3259902173672279, 0.042455799973052946, 0.379461063863543, -0.19891111707684855, 0.012563356131446789, -0.1489538054406307, -0.15991474444774006, 0.22385154991808018, 0.024698726948760703, 0.330393176662532, -0.0007891881817581086, 0.3725666070578321, -0.541914954240736, -0.4843181592668342, -0.036194915537928, -0.4594368110902653, 0.32011897517788723, -0.3081664884611588, 0.08549875335276282, 0.31284431523554335, 0.20659851192760217, 0.1959622618916507, -0.332031867953606, -0.05779301556340986, 0.6257055308274817, -0.06914819092667414, 0.24479745572221095, -0.24977126253052098, 0.15555850441610242, 0.24176738193348493, 0.5117385943965218, 0.17384414339602244, 0.07152969263143338, 0.10164805830613328], [-0.09502990751519957, -0.35632630352001243, -0.0998675165439597, 0.8105392127480306, 0.17089203334603614, 0.010464881016563645, 0.5565500507233517, 0.3706329694372087, -0.2947427495628435, 0.3210246170185368, -3.249955632065414e-16, 0.1634491478574821, -0.1914858931181994, 0.013249065733469872, -0.0430573227109887, 0.6325002865692442, -0.360301425796147, -0.3316023556096978, -0.2842070956517249, -0.280710981383822, -0.14600631327294322, -0.09093700100211638, 0.10070191210347153, -0.2497219754126621, -0.7695200697740536, 0.3348772446940636, -0.10914124379947487, -0.3444832244082285, -0.3896425786632737, 0.015216016632388836, -0.2735902913530372, -0.33927062455079665, -0.31766119674379395, 0.40422048314112086, -0.2643414961259383, 0.14491782805730027, 0.17889061711423462, 0.09233344114252767, -0.06626890221694119, -0.007884050406263233, -0.13571080459180698, -0.37165543404686535, -0.21699592987197433, -0.018127147095370246, -0.6729961616578972, 0.03347307048113439, 0.2725511251233733, 0.10298331664261887, -0.1877680576356207, 0.05095368623934205, -0.04688940702608838, 0.1490650138481729, 0.30719776883529937, -0.06468900251781992, 0.12168322610646254, -0.5951127479333259, 0.2285813527793599, 0.07908407951071322, 0.5907773793288843, 0.15646681935218065], [0.13137683579441622, 0.5413761698147046, -0.44362992566237286, 0.36889864367695047, -0.5227504500183121, 0.3407721732609179, 0.46459511509807266, 0.5372512729123097, -0.2982827915600509, 0.11836825733153185, -1.0089351341135088e-15, -0.010754156387960612, 0.05254697925739009, 0.19598880977530236, -0.2624670206941311, 0.14100510009384531, 0.3167146348917923, 0.04580696338566766, -0.1268068772507834, -0.0844121023403934, -0.017041869844666935, -0.41737541475278406, 0.6901798017190311, -0.28714065934095856, -0.33043258700786754, -0.21002260301667638, 0.5929654013570982, 0.2688823401120777, -0.28745709726766094, -0.3571524973791104, 0.3849599538570031, -0.2257964938541139, -0.7256756051333041, -0.20186614247482657, 0.1320602332355257, -0.5413565115036916, 0.3896370829667792, -0.5320029052811001, 0.2463398359150818, 0.04572796349011596, -0.4148128705862135, 0.06580326828981653, 0.06879235097618856, 0.49382746670268873, -0.534525116212521, 0.6036099261870916, -0.4417342149210489, 0.13046307099127563, -0.3448457765961791, -0.2302733355637427, 0.2100963724666761, -0.10066464969253931, 0.007592627181164125, 0.486133418091237, -0.4804815380398681, 0.25524167533149233, 0.2734039131939876, 1.3844170349829037e-32, -0.5271795216268427, -0.4120877448628887], [-0.6317222020502338, 0.019778643595877506, 0.2081685854547339, 0.24029893023997304, 0.011075992158184817, -0.35936836912910103, -0.3659908517978206, -0.12095631992335762, -0.24984289340109064, 0.16806819136825507, -1.1905233456255827e-12, 0.21800581789835372, 0.03525734105125931, 0.2874951141742218, -0.04329047974190749, -0.21890695260058862, -0.4833473660925419, -0.060741911394360804, 0.20274275606431913, -0.011638225405192729, -0.1436802379352931, -0.3332803665080203, -0.055396026863321186, 0.24507725885785545, 0.00656637130305828, 0.2659093085821966, -0.49637354739474854, -0.07530507315988884, 0.12052273178617545, 0.1225632584520825, 0.13557582695775527, -0.366015106520292, -0.18142924616058842, 0.20621108587406184, -0.035292655764004734, 0.08109780340485863, 0.31045071308668765, 0.24967651383526257, -0.35151646713598655, -0.17419744056362468, 0.1649911286356791, -0.019796686381665714, -0.43040754055219915, -0.27768097896665306, 0.34343948361256177, -0.09732325055692716, 0.4073646527544741, -0.12367004816511665, -0.20847055618389232, -0.053933859528436386, 0.5563837185929048, 0.20841642343881792, 0.2984882630029087, -0.034131380620881904, 0.008066551277386662, -0.057838247458783194, -0.0011223742696929724, 0.14500435020663002, -0.005818584824002189, 0.010420907458519781], [-0.18523790433721615, -0.42108128999852884, 0.06631461695810142, -0.48004167708141987, 0.09181560615799333, 0.06192873954387472, 0.32935144261053545, 0.005547470707174803, 0.26115506512613595, 0.3259318405904811, -4.506212873340235e-36, 0.0028468354019845765, -0.32489295962659853, 0.29427383849813715, 0.13744973653250717, 0.4038520466095169, -0.3645261763300009, -0.3616740395089003, 0.1516739509002268, -0.10039890327414253, 0.28783517204573145, 0.05156430219748728, 0.5925817071318585, 0.05826232268122907, -0.25353365949571244, -0.17535033478953782, -0.08442086789098337, -0.33612805021750175, 0.2181448820602682, 0.09943447574417358, -0.4268213072208588, -0.14791864275336492, -0.21246779046857395, 0.46054662319260575, 0.14075646410538126, 0.05731435679611154, 0.3323158133331891, 0.22221302758681855, -0.5957707291641795, -0.3457884884886301, -0.366195320508951, 0.030200903335904493, -0.1271965554662433, 0.3429477654967706, -0.4492608434744398, 0.4007573088772827, -0.06182248277673795, -0.11351568364034205, -0.1160628433115338, 0.11773375050210597, 0.45409622028907226, -0.12956701763056522, 0.030828180098966127, 0.6893012747431024, -0.5913594522642782, -0.12933778011831357, -0.7049948853602107, -4.338955923115663e-12, -0.03994936657157268, 0.3941591774889489], [-0.454306471294296, -0.267381257611893, 0.09896749122797364, 0.5580649202596755, 0.12936101175578918, 0.008708098525862872, 0.5017764186844865, -0.09658136895456304, -0.07002637741494991, 0.4971036335416481, 1.89655717251415e-30, 0.47762737428952445, 0.04677174507335371, 0.47697118441247677, -0.5425893558568331, 0.2571714181708178, -0.23247306815449062, -0.47936685975467747, -0.44140902098650314, -0.07325373419187624, -0.1699351188374268, 0.1870969569767624, 0.10031498015428747, -0.37076445770825106, -0.1605211704611621, 0.12587538979888135, -0.0869140830723038, -0.30830940451074756, -0.05011256473942795, -0.05058575931473181, 0.18896588724972666, -0.411672601090279, -0.33332866698305497, 0.38520001559105665, 0.24264307993937928, 0.10900132582452852, 0.6154770808678569, -0.3440402680359186, 0.1785074711272644, -0.3353579830369542, -0.21433136422168197, -0.09594301150889767, 0.15764369487270202, -0.2516400929054205, -0.19924098042166272, -0.1297309320216241, 0.3467947168047186, -0.14057172920454228, -0.09973233798313567, -0.06858266326739541, -0.10851133048206517, 0.1271302786845048, 0.5798121753064325, -0.8190988484758593, 0.11188132723456025, -0.14152472699631477, 0.22601379660064344, 0.0190424700481784, 0.6063367389597032, -0.05882416984986152], [-0.04419223350959884, -0.16775140402591626, 0.44931972907553364, 0.3015708545120466, 0.4739696275127485, 0.13102271180349023, -0.14786237706341804, 0.0591135163501152, 0.161827106761368, 0.19644041952329702, -7.926515290800664e-12, 0.13575621824111642, 0.21977926664973652, 0.17809545199029259, -0.19189554793313904, 0.05441266493991905, 0.3358068203498202, 0.3571149133769592, -0.17535601414470103, -0.6278487729204659, -0.21665281936056083, 0.025763980616784157, 0.1874358152672761, 0.2635275578514068, 0.5253564074669178, -0.1372951868511714, -0.28728409751829437, -0.9148818731427613, 0.05338407310658897, -0.49749681088090475, 0.3558948306967038, 0.02273223456821626, 0.4835650778738436, -0.5592566409654494, 0.2754626054155116, -0.0012534888118394287, 0.18460431629308527, 0.29742992783592936, 0.17928509268281795, 0.20405914889077376, 0.29401443875610783, 0.888113112295399, -0.030210907042174193, 0.07819554296683659, 0.1506928128767643, 0.011244307997111149, -0.1445533580059372, -0.13563994544821245, 0.40326891694968064, -0.11562110852339987, -0.5754062599618173, -0.056011340913463915, -0.7609151523167034, -0.08380190452707002, 0.06269103465203461, -0.15953256343323458, -0.08732111328607814, -8.699413723152816e-29, 0.06789489401782692, 0.61495097199368], [-0.19273493453583762, -0.45654077803586807, 0.31554552726662305, -0.21041418717750432, 0.42459287624686376, -0.23293223673646798, 0.1784975208655073, -0.46250433561101806, 0.18031203351877645, 0.28779769070918354, 2.2669320272309415e-12, 0.48301237222321397, -0.02222153587277122, 0.2597192627348752, 0.10829685812805886, 0.03530362453220828, -0.26303047133243096, -0.47421124912679047, -0.07118270165147374, 0.17447937264969335, -0.264072365788058, 0.005804033601101522, -0.19734995941659764, 0.3759528602643414, 0.04109165476777217, -0.11978542200868096, -0.3890002309874906, 0.11603063792711718, 0.27193624588700327, -0.4174163074936149, 0.3014839814842931, -0.45405009406441044, -0.25019675180884154, 0.4013803314623544, 0.46364709444042723, 0.5815791490518076, 0.045329076973323335, 0.3328178371249876, -0.3436148444320849, -0.2581882665207168, 0.29841015383672237, 0.25956199672310765, 0.018198743027176265, -0.11902582531923635, -0.39547147026836366, -0.08336017281865409, 0.1164476878909789, 0.02657640367778998, -0.4509768386152324, -8.399761033675446e-23, 0.8466623840738932, -0.04919485179547151, -0.008080995923949475, -0.33915327497819936, 0.0027765930093827207, -0.35857303813261276, 0.8502985821818979, 3.369031292861085e-42, 0.33581038245254075, 0.3928688468334077], [0.6559548691191431, -0.44011966968549027, -0.24211150763707975, -0.5484218841607783, -0.12043849510492302, 0.5497726614721853, 0.47367458943147833, 0.46243048537837045, 0.5855190882109851, 0.6023917632426988, -4.127664752917375e-26, 3.724818440576619e-16, -0.3035176514884175, -0.3605797962730806, -0.2039674917196317, 0.46328433838970995, 0.08401025657382472, -0.10298861835074546, -0.16147562329639942, 0.31424578358936933, 0.7042270425224506, 0.14147030268280067, -0.6231436289514007, -0.27823715586900705, -0.42993484915341107, -0.284081036028746, 0.5737892886707627, -0.3859729922119225, 0.168188182310563, 1.926274264297494e-25, -0.3110760041465545, 0.2104331862359195, -0.0830968687386037, 0.16744620324285986, -0.16599043955239778, -0.0496781161069633, 0.3610457420522616, -0.19568251907185905, -0.14679488164016302, -0.29962740571747015, -0.16963440566326388, -0.44900992909805265, 0.026186440331658376, -0.12504246883226094, -0.5792300874963129, -0.19532118982880825, -0.31789556385100415, -0.7131890963691362, 0.291223631874618, 0.17534426927703647, -0.3224542530809133, -0.39790024821018644, 0.28332566339914755, -0.4146387546659075, -0.2833301554545712, -0.3003238823621959, -0.24368039889255338, 1.1194300775715574e-11, -0.16028081403958447, -9.148056859995523e-15], [-0.10797270555676874, 0.09612635508131065, -0.07118412040972544, 0.08768494030141304, -0.19768725930069123, 0.30141948462083246, 0.09063730224930519, -0.11242634884143764, -0.3180399263056731, 0.2033592901819356, -4.2212112496052786e-38, -0.026735447480296107, 0.11069501867666945, 0.18250491167533225, -0.02457251299418396, -0.3125864761972653, -0.030392695473748312, -0.0302898498667789, 0.05005420209146058, -0.29132719023097225, -0.043891772681427264, -0.3802629259234401, 0.33301160377461003, -0.046088762279076115, -0.19078128250343201, -0.2384483744094709, -0.09091179727706819, 0.06289038098648711, -0.09352523064027222, -0.01738682055188208, 0.4313382063880155, -0.3923346186647156, -0.4342490282426333, -0.3438376155606936, 0.275428933007923, -0.2832113135305507, 0.38427283801507495, -0.3060404394764869, 0.5149332235044447, 0.06485986398132045, 0.1390874210834078, 0.42850230032272935, 0.41218219599995076, 0.4922682453107324, 0.0003593575025113737, 0.2769031818776576, -0.42757310186004616, 0.013764114330615168, 0.06890680731373112, 0.025480854196392337, 0.4297522123738098, -0.021362611919216068, -0.3196951249010102, 0.19926473612807902, -0.1518505732674574, 0.2463998481588161, -0.07330957311532173, 8.946348680075699e-42, -0.42065826486739727, -0.07795571601592871], [0.039996128936628274, 0.2129204233006793, -0.0939131845237466, 0.3636983324355808, -0.13586275117472324, -0.19546982397272952, -0.43411673027274295, 0.06545675331699977, 0.31929571988263267, -0.48234961607797383, 3.8155114422855706e-27, 0.16797097938379535, 0.27353120951938165, -0.31420489799948886, -0.08510822628314954, -0.3448629106025852, 0.2687624480415403, 0.40117645690649123, -0.3781369231368809, 0.17037630535914494, 0.19963869269996087, 0.2043794621711981, 0.4044071140391378, -0.16031727811384736, -0.22228285962136823, 0.33461552387893195, -0.20666466737979233, 0.15712279182364677, -0.13471470195367516, -0.11483773055130042, -0.08702104857334109, 0.2501792821727477, 0.3161178288969219, 0.14866002685867646, -0.26704404197167525, -0.07890806504554727, -0.29815075848862505, -0.12002676820898912, 0.2312781603632734, 0.17659984508980453, 0.03326430456484456, 0.22466630401295676, -0.4835887696510905, 0.05805797154029366, 0.3857027481282938, 0.2750301655199174, 0.1139196072338942, 0.20390655121629522, 0.12939826694172954, 0.24491707811455737, 0.028133350189995895, 0.17180727956346, -0.10494829729376345, -0.022559152559114778, -0.18754966435752018, -0.22769407112811457, 0.0345768349365697, 2.2097810146176842e-24, -0.2573942000848262, -0.08683600568306059], [-0.16694188515032848, -0.33170990998333316, 0.338224834322191, -0.2786998917126879, 0.3626617936641094, -0.20494319525219507, -0.2125513517072584, -0.12670049780761466, 0.2178113334637962, 0.12813757931567216, 1.4298665028129798e-38, 0.1819050611939822, -0.235581024398528, 0.6054896178134682, 0.49182432339637183, 0.22791288525029021, -0.207369630666167, 0.012526990969243154, 0.09711629476522803, -0.08231340546757412, -0.022249260248355704, -0.07392081224735782, -0.3753028366916435, 0.28630482667747087, 0.4156698020533834, -0.06533521078383636, -0.22631259749882046, -0.3595853965074535, 0.4795753833750817, -0.3132601344670902, 0.18597226153887159, 0.3987824879024759, -0.05363996853105962, 0.24399636542324146, 0.2424561699940462, 0.26173547724679536, 0.3759232498703487, 0.29270613940684065, -0.22840386948288086, -0.09361243657753764, 0.24890318031197725, -0.12217897631763054, -0.3355688744909251, -0.15218923959430095, 0.36205748498770896, 0.053456051956924044, 0.38775507656062397, -0.038489742021576435, 0.15669303272348906, -0.14809768512780333, 0.4311726724551657, -0.2937463512039418, 0.07621613427099623, -0.05926452298846645, -0.460992188370969, 0.035458946902018305, -0.10545438450231433, 2.994885131333109e-41, 0.17430749079871424, 0.18006805293591271], [-0.21920863525106393, -0.1976545057817834, 0.36957271693499383, -0.18863679361940502, 0.07281594348237673, 0.016040305698137143, -0.029453529164971706, -0.36784255586706227, 0.0812973505691574, 0.022420999671595554, -1.6493611899961817e-20, -0.2498426987002753, -0.23623828903647265, 0.13605557861413461, 0.010785641815506163, 0.27880174936926944, -0.0927136277101134, -0.2538888609264236, 0.27073783842447185, 0.3360788732594103, -0.12515969843858807, -0.15892155463605892, -0.06727940826458617, 0.1847224664619406, 0.23096931887866973, -0.09908028897028529, 0.11759849685226936, -0.5216219372260952, -0.09209906252939769, -0.005513378421863052, 0.01085835089849903, -0.14323861615301933, -0.13557528606473476, 0.07857200119104449, 0.2955434128492731, 0.6161564575398039, 0.0054247276442442975, -0.22742957923532683, -0.08973884355282126, 0.010722295200506151, 0.020192299811574426, -0.2758049595767146, -0.2215870595524154, -0.26649060742939656, 0.3935345632971542, 0.21894296615039596, 0.1540920016353507, 0.05500843897669281, 0.04293816016852109, 0.5055390140233268, -0.0501964271342159, -0.009410603814786518, 0.22598395732040666, -0.3188702023058198, -0.017281075533745895, -0.21572223642906532, 0.14981610562265776, 0.07489694041277888, -0.08534290294735013, 0.22093765893415793], [-0.11242745705446212, -0.10570322423045792, 0.29893781248697765, 0.19558234954630488, -0.04512427996600696, -0.03210404610314396, -0.08692829137937666, -0.11708910742112978, 0.17983541191681662, -0.1644635677140853, 5.20204289202953e-43, -0.2613824350007805, 0.4595743631451875, 0.2528998274579024, -0.33210546436636196, -0.02204564414268409, 0.37947883026964885, 0.3278518233431746, 0.27721123787373597, -0.27972956016270434, -0.29189855263072306, -0.1460287860124479, 0.040898530211924716, 0.32556134075644, 0.1421954149304704, -0.36148717330809116, -0.06393539113579953, 0.09927669086753908, -0.11474797621076208, 0.17707384047737057, 0.29070879353280726, 0.2674720188161961, 0.4671716768920695, -0.23165837151765883, 0.04491419973066305, 0.020942005337377244, -0.19961758584101982, 0.30179291908713834, 0.3521025906589818, 0.2420371306074558, 0.569990971761151, 0.14820967355692072, -0.011100186458163845, 0.002379331435792374, 0.3320461017569737, 0.10537888692313646, -0.014321615613609746, 0.12146964194150782, -0.04201612388795872, -0.04673246259404196, 0.22528884933179377, -0.09631617051768522, -0.47248769233783455, 0.04126760004536486, 0.12489275885011991, 0.30032700473577245, 0.3438695307268352, -9.712254332276071e-40, -0.010185293587886701, -0.03336386577439803], [-0.20632387050138076, 0.3909710970694958, -0.300740150301173, 0.3397022309857432, -0.4138372337476897, 0.26542083287798524, 0.12196420151256504, 0.39295706430651023, -0.2660619946118084, -0.07015861446331649, 2.3986190492558637e-17, -0.0336446528522347, 0.5205896533543979, 0.10574534649560415, -0.5545310627625712, -0.6831779218823748, 0.3842154343639621, 0.23509899875134854, -0.03112713034201221, -0.21022600506972047, -0.4591137302696897, -0.044197021684287324, 0.5890389801171753, -0.6135850140981147, -0.2833631359663212, -0.5484532035031773, 0.2230411294326887, -0.009299700462081029, -0.2782473961649932, 0.1518037873868284, 0.28672436071669893, -0.3421903214496618, -0.411992907765634, -0.3861998204263547, 0.2949245896533405, -0.6084107162129927, 0.06951698907020072, -0.36995675323146066, 0.2558178543620115, 0.32436527017441813, 0.060044648218147464, 0.23243055738740312, 0.1627861227935201, 0.34506534734379096, -0.07798958187331231, 0.4373653113476513, -0.30455811426570545, 0.39846877309739903, -0.6490691453058587, 0.04837968926008471, 0.7440791412517338, -0.08821776060320961, -0.11552562491246349, 0.6891327418354161, -0.45687461184228645, 0.2778113211515417, -0.019140738608449216, 3.334116342026557e-36, -0.24682461152021692, -0.10743362618046647], [0.06645288528291102, -0.06952226881919371, -0.030746496983055104, -0.15700728678837583, 0.11616168517691357, 0.3311165667010979, -0.007312034706028393, -0.10129815446713847, 0.05527898713053735, -0.28480055387675324, -1.2528441308499399e-36, -0.05849759618253577, -0.0633244927227132, 0.2347339229295039, -0.031933430007356066, -0.32861482885229165, 0.2457025296032188, -0.07013781516854799, 0.28987590087986853, 0.007542707447151122, 0.06579267926126284, -0.03358906296233156, 0.5359873933883876, -0.07206638722512908, 0.21792227990316201, -0.45671779477835733, 0.2869452587079354, -0.08898206668659078, -0.12819269674770023, -0.04413990496271554, 0.16466221267518366, 0.33045337974662753, 0.00462990201084007, -0.37178111874826525, 0.12180400159843835, -0.04962142607279466, 0.031762090520947424, -0.37160626391503926, -0.17118584560363526, 0.21072260568174966, 0.026329743625754763, 0.10485915677898541, -0.2692805649182408, -0.04218111064753404, -0.037035411942722224, -0.07096642534812722, -0.038237396580761106, 0.002374906839734657, -0.2792796259720996, -0.11180086055241187, -0.025545346114373577, 0.20659441965158915, -0.039198219095047615, -0.40986015242363716, -0.43180901496389473, 0.08827305980791553, 0.17624153440770018, 0.056792118253017665, -0.09039360525245696, 0.16602826495432274], [0.2508947034643807, -0.41514754909444046, -0.11549788383017899, 0.14467174467196348, -0.0029276492362632993, 0.22078798941738445, -0.054086046121616306, 0.16588608427309778, 0.06315636729349713, 0.04510966741572278, 3.665915923134523e-21, -2.6238980381974e-31, -0.11944233972241733, 0.1196925399264923, -0.11196989636755099, 0.18536958426380445, 0.09885459258111878, -0.1743844203049251, 0.16123042860472858, 0.09629299835885254, 0.3606586108221379, 0.3452394145393766, 1.2453129136005232e-41, -0.08673307083943799, -0.17455664224021367, 0.1009847445733602, -0.007737522445127995, 0.008083877349333506, 0.46877742463536853, -4.831226844041261e-26, -0.38422477597939975, 0.10991102747831875, 0.008855591555342242, 0.1051843337164744, -0.39918733009487123, 0.07934576033066358, 0.11630922017814214, 0.0831750652399247, -0.2156874240435356, -0.1851105162792516, -0.01100662367786614, -0.13998952522628275, 4.68234871009726e-13, -0.03697588340107499, 0.13562708080469998, 0.07019274357120103, -0.3650954300883816, -0.18789428072560355, -0.10119427053261566, 0.11425411751084608, -0.3595761609115869, 0.11969008244489661, 0.2826632733647522, 0.016970470435053026, -0.006698981426974246, -0.4067989390310541, -0.4734977504532006, -2.5685437849958035e-36, -0.22942161752061474, 3.794484131066718e-27], [0.054589022958109176, 0.32043592008652283, -0.10653112496440423, -0.15886122175067757, -0.03657406468773728, 0.548528775130165, 0.6571713364161333, -0.14908919544644408, -0.1043470970131679, 0.14875431533402886, -1.0118866977711168e-16, -0.3115095540934863, 0.2339905923865125, -0.18457905740998437, -0.05306747331988164, -0.43045157953613317, 0.14803852574203427, -0.5828409937170985, 0.07828180037598056, 0.1920599674228315, -0.09050943368467718, -0.15730526056606225, -0.11937503371959703, -0.061683114455327884, -0.3274814190610444, -0.5988283664027094, 0.12081014250451676, -0.6261647808702453, -0.3573232004044135, 0.15578948830964126, 0.2107810040730992, -0.15831706425813707, 0.2518505929406406, -0.5220981721688515, -0.2480984028915275, 0.22462739857681469, -0.394795481318484, 0.14996682964187114, 0.46120302604295205, 0.29121501331568944, 0.1446971395453861, 0.3221043056901457, 0.2854216504732396, -0.5295445096919323, -0.5535883462507207, -0.48467945377583266, -0.2449905831416248, 0.6380870405904271, 0.6448697378305855, 0.35929984747968136, -0.785543973559797, -0.21051988873847322, -0.3039548760926906, -0.4889702050622571, -0.21914730623657042, 0.21984343160099526, -0.08068364083852751, -9.199401299394016e-18, 0.1649674250866103, -0.10949258166182385], [-0.22480382670792096, 0.0031983074323072833, 0.383367653443416, -0.28379614537022074, 0.11330118182871364, -0.09695014901878188, -0.31374444304359356, -0.4646159628892583, 0.16827203832120538, -0.3622616054688396, 7.754811050015165e-40, 0.009565952661869645, 0.05526043641154114, -0.00341752560708336, 0.32401162281180856, -0.14762784118207348, 0.1560416600740803, 0.39443862247553263, 0.17724571997726743, 0.1743637506316146, -0.2892140570691722, -0.0766651336270669, -0.21791881975801566, 0.27642285219755924, -0.2509979326485034, 0.04415467675252481, -0.24333495196760374, -0.06283672674641384, -0.21226336726500963, -0.10902741473745257, 0.1527072170304712, 0.3689041105699381, 0.4599545313327092, 0.3087772906892577, 0.1337773627718668, 0.06519267559481218, 0.012752475233753795, 0.3399294584713199, -0.07823762149516927, 0.32389682027985367, 0.21414882995455725, 0.21820440460930443, -0.22151907992401532, -0.05978797222632875, 0.4694999913992307, 0.24318808958915833, 0.4521551207532741, 0.28472399413416444, -0.2023728655834987, 0.11288070626128274, 0.14629419605255703, 0.12657926006484532, -0.08036637756089302, 0.26761860564188145, -0.26243657054662245, -0.33533549946551977, -0.02879744771750564, -0.18728394483671587, 0.03550234362452458, -0.009156171324140115], [0.5368639634433868, -0.2682970858914659, -0.22900301528920322, -0.5163925154211786, 0.4673199016704573, 0.1291177262157411, 0.3810084178299308, 0.33645390451291446, 0.19230143717205034, 0.07173016110638494, 2.1624243013602566e-30, 0.26872143195761006, -0.1949404813277465, -0.340581025592414, -0.1277145017351056, 0.8269467485898911, -0.14740229323487605, 0.5634136580584858, -0.0961452174803194, 0.21307888819508164, 0.0935153933938367, 0.04427173808048814, -0.4326297134595429, -0.11342389303070703, -0.17332506563944355, 0.34319587227183823, -0.04804317750474299, 0.23006091672854526, 0.5953103672275866, 0.04860784943676173, 0.06299788429371524, -0.007749787466432202, -0.15677530651434166, 0.15839598680670958, 0.0011016608815562943, 0.03024448196477041, -0.0742020513423575, -0.38511817511973345, -0.13971350436105115, -0.34290950038245765, -0.39292753194003355, -0.4014274449557899, -0.2761013019977888, -0.11993258453165502, -0.23711162417630444, -0.46441529471508325, -0.6214165055679206, -0.4335719314952475, 0.46850290237026454, 0.05011777883808018, -0.16974574172380189, -0.2304341435102435, 0.5902688483719467, -0.010161034971290474, 0.40742903342642045, -0.5957082374003283, 0.3846583925840693, -8.488929759681797e-40, 0.33016832996907797, 0.44094182692076167], [-0.26145563159512986, -0.4335648127090442, 0.03497409581512106, 0.014869073231279735, 0.4849496025060654, 0.09890942478615052, 0.037096914438428844, 0.11819865101155047, -0.3273604736046767, 0.639188472317692, 4.286463498294776e-17, -6.738777101848734e-19, -0.27749880198783233, 0.4311546160367787, 0.34498751344289497, 0.41197402979642, -0.2245907678002702, 0.6055173081221011, 0.06375644242231254, -0.5056216769437712, 0.18737153171401175, 0.46034676605588914, 0.45893747705828003, 0.011281373228314186, -0.25734557449931145, -0.0014718124044293915, -0.30852218895301825, 0.008622007391613846, 0.25107287730345207, -0.06878226358834755, -0.4420261155196848, -0.26990724930314836, -0.1581506096499504, 0.40027326639599764, 0.3689495511849951, 0.5054082074304751, 0.21691024937590092, 0.0809330548798264, -0.5919461295225131, -0.22671356542097307, -0.19915797565146, -0.48081686833306125, 9.477367815375139e-21, -0.3553178748149792, 0.037779920230588494, 0.6930039607400488, 0.7019939587896876, -0.2137062577749347, -0.5912218784522084, -0.2940501815432125, -0.2552356508007058, 0.027993827042672916, 0.6193112784816474, 0.2951343227156375, -0.31580140253937905, -0.19454835462902798, 0.4115255681264244, 0.025798110611956082, 0.3526963619403561, 0.21141814308801776], [-0.16618025905413328, -0.4366244413387066, 0.34062545977781833, -0.047408986717638976, 0.5193309826014215, -0.506064108083386, -0.1286108721480084, -0.2624158640925604, -0.08155258977513634, -0.01876958884205, 7.64911483152969e-37, 0.09165770906872096, -0.14935335267212604, 0.3820309112157692, 0.13815755990199743, 0.651342339632459, -0.35629527737586364, 0.49871336234802777, -0.14850687048258993, -0.018625916593675983, -0.25073888080426626, -0.23633351456210436, -0.42388767701559504, 0.22735682109662222, 0.2737161827357726, 0.22539480637696152, -0.1781277569207636, -0.15719727983962953, 0.10872778060968925, -0.17744090742508004, -0.10991189208349197, -0.5362954702533171, -0.2154994523801554, 0.5432348824715173, 0.4294812464173276, 0.5770075827739266, 0.47411836201112756, 0.06202551307671261, -0.35062232486047035, -0.18172948816606957, -0.07907638974939735, -0.2526750815824717, -0.004266275168488652, -0.341226320156699, -0.13584243721388445, -0.06203527485585073, 0.3028175792854022, -0.22459135935843208, -0.21381411592125887, -0.33155310205787597, -0.1254975739631859, 0.11717609136617811, 0.30610322435413495, -0.30869763001122474, -0.09972135126533915, 0.0360046133789418, -0.15775187638168148, -0.04183862793426204, 0.42104094928697544, 0.5758758223052588], [-0.44044065512572983, 0.21749776683871358, 0.18793777891736338, -0.027817141814754635, 0.07156119695222028, -0.46774257250050694, -0.02143841663157014, -0.13118736624845734, -0.3658325006749174, 0.02029105503411646, 2.1935167203373055e-20, 0.024011464647425915, 0.04810834031060499, -0.5197004751432064, 0.19168614665751094, -0.0024112855842700863, 0.03896780312907943, -0.5318664702977033, -0.6352959138689618, 0.05333551727502786, -0.3687101908457191, -0.2323014446256466, -0.4776406093596519, 0.1785206009218596, 0.19453598938751948, 0.5684817102578513, -0.12798750717298654, 0.31547404199452356, -0.0006300729127070645, -0.16570922207856942, 0.07209128554975362, -0.5520749809149543, -0.35158952189630666, 0.10211067755674522, 0.4203785213994138, 0.29822727547025873, 0.03448425233954278, -0.03488303236555772, -0.7562065762161962, -0.3153507813422232, 0.08402055364436135, -0.29675413800371714, -0.06023379668349223, -0.57739175918672, 0.5312000499236221, 0.21550581190492632, 0.22192008199382787, 0.5799189381801257, 0.09067809325510753, 0.0027633127910693823, 0.041651444952202146, -0.0895253011419875, 0.22349410894392452, 0.31905223283190337, -0.3633875191316381, 0.10813184331828884, 0.3083746995503373, -1.2455931755359501e-15, 0.0026976651750197055, -0.002743451577867671], [-0.05079589474296982, -0.11815540491591534, 0.22009424963409807, -0.23691763866482055, 0.31625371679249936, -0.03274893666439965, -0.1801797012212026, -0.0669020162579156, -0.13690506081600665, -0.0045173726179702205, 1.8685702388908475e-40, 0.13096763198839176, -0.14924818033323856, 0.3177918097079461, 0.26723098167406545, 0.33936783460661785, -0.13573510749428086, -0.13747424462238347, -0.0036166062285381433, 0.2385489802470398, -0.16612216439070512, -0.06599414995652733, 0.1034799280436686, 0.11752934389086173, -0.2381073547968946, 0.22279066672086373, -0.2732249382655337, -0.17329216788051321, -0.05581895246113198, -0.13806284039209962, 0.19072468583291197, -0.10190472153697339, -0.33752218475704315, 0.3445210758569817, 0.390127638798284, 0.31853154555595314, 0.03384439679037098, 0.0700213250625952, 0.0836616462072917, -0.09435917453819555, -0.01477062049436149, -0.3373185596976636, -0.22042264413890314, 0.06477308581823983, -0.03094838592206566, 0.06491765699336836, 0.02604281831896037, -0.052837930129390254, 0.14263196793906202, -0.01723061651762904, 0.43185573410033423, 0.23034863932170954, 0.049817789063438395, -0.04507634262352843, -0.15086091480434824, 0.08311536062790861, 0.12054771597538187, 0.04800192603117336, 0.2746842288326705, 0.16605067376993246], [0.6789905804511884, -0.26937792247746284, -0.4846901009449636, -0.1407701505090758, 0.0008417829898919514, 0.21765094891979553, 0.5396610357854784, 0.5553080115651123, 0.2883204509941731, 0.4656664201482031, -3.4543158244543856e-15, -3.4520799207665488e-18, -0.44974287321257805, -0.05504555317643474, -0.3960768230021198, 0.3640659803049719, 0.21634150943612404, -0.2892109943136247, -0.6119153784384311, 0.5357269197885807, 0.6857578196366884, 0.32939160858349953, -0.17028129355553417, -0.38337396302456755, 0.011418292221261268, -0.04946908380244586, 0.484693870115208, -0.36749166227695196, 0.7110608395641771, -0.14189511208962424, -0.4777592192840283, -0.12995038181825616, -0.1057536698935769, 0.2608572263251512, -0.08094712096922366, 0.07744317515391069, -0.004173411970236134, -0.09821694730049525, -0.4309457908279007, -0.17124735178181236, -0.2283260877162178, -0.404584540634701, -8.399972183773317e-26, -0.19986985670930482, -0.40339258807747247, -0.214180127270509, -0.47697788724420026, -0.5814885716481885, 0.5022954958949652, 0.252259697168346, -0.6311178062928312, -0.15069337939995428, 0.42541362752655554, -0.3342511608166677, 0.09479435696399832, -0.5504347926971195, -0.4722063297818541, -2.126583817036365e-31, -0.45094784693488627, 7.535667691910516e-22], [0.4336129884289731, 0.05161635466025739, -0.1230733541871411, 0.0794983522781881, 0.11558677249547304, 0.3752459195333741, -0.10983319341352238, -0.2623993357300844, 0.454157145320933, -0.19901021947230058, 2.7186008066279054e-28, -1.001611175285479e-12, -0.07119612442793978, 0.15435991228633747, -0.15278656401070967, 0.18651659279750252, 0.35158792964274704, -0.06529946700311844, 0.052485207146082985, 0.22158408600542517, 0.1809492254931157, -0.08122968816878245, -0.4269734921390329, -0.08374156191694178, 0.11747527263140232, 0.03377493826255592, 0.2337282875923777, 0.5470103198674187, 0.28763904831582204, -0.06126548740109376, -0.11714645214367336, 0.48435670227587985, 0.32486658996551143, 0.0008527219998905672, -0.2199826788168295, -0.006010713693644457, -0.037048919077556364, 0.4189687137480606, 0.1832174464274027, -0.01191018768920329, 0.4185875950565721, -0.08462134986410721, -4.855262604957647e-37, -0.5290569311244867, 0.25891810013862837, -0.102788392912627, -0.05260083348324942, 0.13312840523670239, -0.4024761229787081, -0.01868071854018443, -0.26499929574323483, 0.4288471938727211, -0.29017467349222553, 0.3508169653946506, -0.13626783468680861, -0.29650637615041575, -0.2765238728365179, 6.854211889617368e-25, 0.13232168930070562, -0.19932158443978018], [0.21975717137226725, 0.047444426702835704, -0.1411627603721428, 0.19711183090124923, -3.1903859312808804e-11, 0.2386700748159768, -0.16335825452211264, -0.27130486640129864, 0.2490245151366717, -0.3968525208079023, 1.8954346728635988e-22, -4.034291328906152e-12, 0.41697035856338605, -0.44690993777660626, -4.5314886512687966e-30, -0.18125162122915026, 0.5493217970390123, -0.1209616690786767, 0.06418013309446693, -0.35335050066519763, 0.3129299843334913, -0.2969203697762712, -0.057113081766915194, 0.397268460489299, 0.17357046112307786, -0.1952739463100824, -0.6191906816468439, 0.07406835208031667, -0.3891490429521916, -3.3671478652106966e-14, -0.08557677838876993, 0.6499723020311988, 0.5314599563466897, -0.1721246583315286, -0.08391174709995525, -0.2072535708167329, -0.3251003496785231, 0.36898151274561636, 0.24681850868609356, 0.30682139759630134, 0.5279932365368607, 0.49038367379890313, 6.180607984623289e-14, -0.046688335106639334, 0.47342281443999573, -0.2452986374308957, 0.3694353110164758, 0.03289961743878555, 0.22969293629530743, -0.011135732055042534, -0.370161841910684, 0.20384165947908145, -0.35533899915121836, 0.23490596998653074, 0.03225886474326455, -0.34006687490797, -0.01569314859297292, -6.131722148062425e-42, 0.3321419418351043, -0.1935720718615589], [0.10576390365495028, -0.2882276141966641, 0.012564336693111649, -0.5871224306230375, 0.1447985935634041, -0.10534565857527865, 0.504350955095747, -0.10394173358490671, 0.30374656993013377, -0.005962501045618617, -8.6819265411414e-35, 0.48272217534767414, -0.38835455093288607, 0.3810660236038648, 0.042390011847002335, 0.004703807109459871, -0.021475836599525042, 0.15751407659390035, -0.40975632028832826, 0.273254619418499, 0.23040813047196343, 0.1254701013590762, -0.5357241853011547, -0.1689285811306393, -0.047772060160617275, -0.12141185226171967, -0.1902833874794042, 0.5895183025189348, 0.17647121176601466, -0.33101678281437, -0.1337014110040657, 0.12164099424445644, 0.1630966732355864, 0.2679120054137517, 0.3512902378418985, 0.12706123355614388, 0.15507991840429877, -0.022406088278304048, -0.17305142860550224, -0.05287538195162923, 0.2784150601999377, 0.14419916492045393, -0.09554040764231148, -0.3503737386763418, -0.09213416152774674, 0.018094628949727225, 0.22134725860923, -0.23117243868211973, 0.24946548124006493, -0.16891475961909713, 0.13558832334897397, -0.35971225566203935, 0.24666944756001916, -0.3892276063344171, 0.21571213294285377, -0.4125354684494645, 0.025543807624891404, -5.860803840628976e-33, 0.042003605533605264, 0.31407401977960475], [0.31125807309271186, -0.354971917846067, 0.0025458044896034303, 0.2251170795159932, 0.11551885364817178, -0.06726053047009535, 0.21744468526799993, -0.1519334385780814, 0.6174137238484747, -0.3465587930684625, -4.249496027478016e-33, 0.17578346908351877, 0.044218899893358816, -0.29493582947486735, -0.0777499713644209, -0.18539825172576083, 0.3499520155836127, 0.46467370117229795, -0.21610200966016777, -0.8279886049385201, -0.29724984883118155, 0.05078629732901446, 0.049026161368570645, 0.12836515538180873, -0.015574329124764131, -0.10258669807502208, -0.526494639285712, 0.6318873924000201, -0.6241619570523111, -0.1047704571091957, 0.1368033607503288, 0.6640422485835249, 0.5789039654446922, -0.3426823080749695, 0.2733137915568971, -0.11147648561579271, -0.37643863786843823, 0.46265835005833744, -0.1064261304171403, 0.37669807207015377, 0.2747161358409526, 0.581454615273407, 3.845729772118853e-13, 0.2419248686329533, -0.01649020189662615, -0.47342076951669054, 0.26354184881381815, 0.24006345237811944, 0.6337859107905566, 0.0655145899897504, -0.6383167053109828, -0.29092583514749704, -0.2167165757279631, -0.4240888948278556, -0.2874883896578358, -0.5536752214694581, 0.1369717314530467, -1.549997829125746e-11, 0.40770295898772063, 0.03957877741153448], [-0.16083755612458248, -0.4456355748113514, 0.14475300900048185, -0.3989225359583042, 0.3310567536085883, -0.16388454322700396, -0.10691494659680263, -0.3136111811274351, 0.0821822228212877, 0.1868035236307155, 6.467103385289103e-28, -0.09800576733035882, -0.276635619602372, -0.19702866712759287, 0.23077312543856157, 0.47846877096699925, -0.2519706340090368, -0.27768710344229136, -0.4564443362121357, 0.26682507257914206, 0.02000358964142946, -0.3716233918869704, -0.26643636375994656, 0.13420039783438312, -0.12086725734837665, 0.42590896676264045, -0.3253361337216747, 0.26570772138309545, 0.2192536752516937, 0.06971349980947954, 0.024629024981873297, -0.05757273769750191, 0.1217639869720916, 0.22493531518000814, 0.3506382517972368, 0.2741044747360903, 0.11142648692673249, 0.20987653941373025, -0.38053988556596197, -0.6002426091070419, -0.0007778342237886612, -0.19775279076145397, 0.36183472622791196, -0.06223624240924135, -0.20596199392022357, -0.08589660675007328, 0.1619699089051805, -0.218995254183392, -0.4669358876598985, -0.2077612727373597, 0.1030480023423771, 0.15105811202963437, 0.3318168354489199, -0.27549284943235997, 0.16011838222710847, -0.2738157828800398, -0.14131768637935538, 0.04169970940235187, 0.1984589139344397, 0.030280462568887886], [0.15999033415400324, -0.0860890966749022, 0.11130565048993059, 0.002504921477528231, 0.16988805543575114, -0.215718536326327, -0.35120115738290136, -0.3853949516730919, 0.08721999006211785, 0.07798797916759712, -7.104679880100342e-20, 0.12276760732002401, 0.02522761274314389, 0.013435060560160056, -0.3144542026488233, 0.2652375096766576, -0.33142386109976013, -0.3004551162049863, -0.018404210392209325, 0.41490952560183036, -0.009759972875826717, 0.3624799574172745, 0.43832299205281183, -0.019484195120301404, 0.28095583250215345, 0.5687362562053564, 0.07751955890616868, -0.08530472627649778, 0.27112179237090245, -0.24903815096103984, -0.07833753456917704, -0.36737007997952226, -0.06421666626097378, -0.14548606186214105, -0.2823529027709283, 0.11253503497335074, 0.24000427970985266, 0.5731448938264873, -0.0681704642064625, -0.08487385190297507, 0.1524625019048485, -0.35851985582763557, 0.40219135969226966, 0.4420260096080014, 0.0007855761816086022, -0.3245065962668738, 0.44237776630990366, -0.41257613394897563, 0.22759163771143207, 0.437727786147751, -0.5733571148167117, 0.46904447053568227, 0.13391904824507112, -0.2641583717888183, -0.029880142277289266, 0.18442812788736637, -0.737589530331739, -0.019677995822140984, 0.24708365480334765, 0.43984491255726693], [-0.22091216205113345, -0.09174613642081325, -0.03649637608427965, -0.5235929067125018, -0.3657764453584386, 0.05321601597680228, -0.3718296400439577, 0.12158165546539125, -0.3209645316822052, 0.17251699943664908, -7.185631782294642e-29, -0.03585693452965359, 0.1014753750122282, -0.5589084556948276, -0.3207687895369693, -0.1073203704732728, 0.4071885626593813, 0.10702669999605038, 0.35620000836193033, -0.6012223871582048, 0.04101512854019565, 0.17319495958990852, 0.6282209596813547, 0.06090419751982972, -0.395138884659984, -0.03915370580594772, -0.24394479147790635, -0.45661619610600296, -0.03823854234091866, -0.16767442393323823, -0.01886029335054784, -0.08345256838009948, 0.24935733784215933, 0.07215323351095955, -0.34242881566868444, 0.15077283205693004, -0.21956210404364393, 0.005012618454141382, 0.035724678008785433, 0.2041035977295291, 0.21459139163933508, 0.23217800010544493, -0.059751358411378845, -0.2515744684638597, -0.05810818217649086, 0.22627411142981954, -0.1702556168636925, 0.14482066340634833, -0.1790364315827156, 0.4234263146475222, -0.383313120451485, 0.37420855316545026, -0.26098223517633384, 0.16645938903141347, 0.1962970567316088, 0.17003440419277763, 0.2608325674902036, 0.02989398055863586, -0.1521817678443076, -0.2830797738739794], [-0.5741462695533152, 0.3558671604577923, 0.23440751010261823, 0.4943024593567327, -0.2125026977091505, 0.13131533036409848, -0.48829437963829325, 0.05799773048576016, -0.2989458161799822, -0.008540909889806426, 7.485623280232953e-17, 0.36301801209061696, 0.23745253143196984, -0.27280319185865, -0.44495016256267494, -0.2097476468243852, 0.07962233838965628, 0.1490201815126434, 0.09116866303444575, -0.33963762269192, -0.35354244927061246, -0.35839418507036813, 0.3065060487686425, -0.048708246408746936, -0.32134354287530575, -0.17260367452050235, -0.4228405828617342, 0.11799995401235419, -0.3241617143590651, 0.33085753202076734, 0.23674598848961137, -0.1959688900400656, -0.12182068578821924, 0.12890815680704662, -0.24696083369369498, -0.11635651190769636, -0.0428179645594899, -0.10903700875983005, 0.08440291274691283, 0.22397122885839316, 0.33699800339395963, 0.28702354133699315, -0.4116484552724492, 0.5081981126449281, -0.45098154497805115, 0.22120404557124143, -0.1458603720833027, 0.3791506296906443, 0.13880131799604134, -0.08177620145771147, 0.4343640549092032, 0.20355513215756527, -0.38795522528048365, 0.025366209411436347, 0.293578831634656, 0.1403589324918473, 0.631390729747516, 9.562696935066005e-21, 0.16378183726257925, -0.3596417087614291], [0.009238736375878498, -0.22791524998314344, 0.08044461172890285, -0.07276604028422118, -0.08127266541181773, 0.06039477956153553, 0.3159532521857356, 0.06247827975626335, 0.13017935208320325, 0.011899352253596032, -0.49382710372579963, -0.09933812514888106, 0.020661172695260563, -0.09399213435391734, 0.06134091396650027, 0.12066235473746258, 0.09395387027315714, 0.247690348398468, -0.2594651939902595, 0.06048619619859927, 0.0299904477214994, 0.28202012020634565, -0.060808073393002704, 0.14535028655244334, -0.06955350536660573, -0.06033398006209707, -0.15544411915872217, 0.2681328104669909, -0.0029575796089983094, -0.07685147374990897, 0.06558067849777961, 0.05251368386320206, 0.2017503298268204, -0.28338157099607536, 0.2477849945517339, -0.12480381063931999, -0.10194800418178261, -0.032715528586620475, -0.11300794261504053, 0.06533506848426479, -0.11687847673534374, 0.2780034471837391, -0.15936044048920697, 0.10073829643922518, -0.3037560404682902, -0.026056287175677102, -0.18528441960156514, -0.10604784216877645, -0.08098047871366677, 0.03353726338494548, 0.1200139353845399, 0.08055661701385435, -0.16245413680731818, -0.12659063202321674, 0.269340450897429, -0.09211668327477866, 0.2821863504736236, -0.22203142323948025, 0.15177191294907835, 0.1719274024013899], [0.05262169881472934, 0.19362450840745787, -0.09805539827235805, -0.1433790822937739, 0.2532280936058649, 0.14157938746832277, -0.28542156607254254, -0.126745108892755, -0.16011833528079397, -0.0378879336693928, -0.18222482746830423, 0.008105775717683568, -0.1111123624879102, -0.1267808300382214, 0.04616251633605252, -0.0618229523239865, 0.1170646759548679, 0.41121500790685694, 0.3338260486110271, -0.12320688644194458, 0.3015946142131681, 0.1043058456682951, 0.19852228188695376, 0.007414838077239746, 0.08779029035237626, 0.05927551710368555, -0.24024405644190394, -0.14342602614367458, -0.02506184962736235, -0.06433843441333083, 0.09024442092728327, 0.030467400534523945, -0.17145586258469034, 0.30899966884884894, 0.15996979939532752, 0.16218304113873955, 0.28384322734223916, 0.10043844936997764, 0.31050668573793616, -0.21983399459103964, -0.023150648295864436, -0.18418179401524884, -0.3534875547762518, -0.26342095003244825, 0.051401321652640504, 0.18345581403213143, 0.002608476634611368, -0.30629062308427185, 0.19071642105469502, 0.19077765890645307, 0.034441624472077485, 0.12959228081889385, -0.09307146735161177, 0.15769929871599395, 0.16228800387487033, -0.09055811356615165, -0.09198586510412908, 0.03938659159314738, 0.06743281853185788, -0.22845922998123766], [-0.10632456782478554, -0.39911918258568013, 0.14460044089468332, -0.1256251502840945, -0.1833162908289336, 0.2638796139263019, 0.027993428198509595, -0.20328062972714953, -0.1430592617102006, 0.13528515160621196, -0.554486659964694, -0.1790946781039824, 0.22745963141191303, 0.2771428173111792, 0.08786049400446956, -0.03367586262490039, -0.22256654034636625, -0.25819526290371914, -0.03498535647652449, -0.04778712840624399, -0.11372657786810343, 0.1418192597370711, 0.3288486859834434, 0.19358622767142405, 0.16777133930645952, -0.1480545049981976, 0.1798886242515659, -0.2989589450616574, 0.07667498813676117, 0.265516370183682, 0.13956340805000592, 0.2692521686418646, 0.054967616411943004, -0.11700045612068005, 0.128621128454125, 0.15562031585509906, -0.1601780027202338, 0.21888783153238475, 0.3057983132605265, -0.1582261094531214, 0.17315635681650046, 0.24267795233044107, 0.2599050913962977, 0.09993122867460917, 0.08317916534957237, 0.25512427473766564, 0.10811260269282084, -0.20248993217033526, -0.02821593833342253, 0.10303626081335172, -0.042381740451510316, 0.11406932927577193, 0.03616156279436062, -0.29696670270811226, 0.061804662281125855, 0.16485856006961946, 0.08726617785081313, -0.3606567086263461, -0.2650664493343173, -0.026505738844659135], [0.22006437927698647, -0.06336997016154278, 0.09551974261659053, -0.38018965735261945, -0.11979287536804192, 0.17967853319767627, 0.12262253474142466, -0.2825112816594568, -0.068097442049054, -0.23309306952191544, -0.36223235978004514, -0.042648227052953465, -0.16085952204859832, -0.11064410731488253, -0.09158308983038757, 0.1969589524291009, 0.24421519978218204, -0.23717548853826886, 0.14949686846052096, -0.012494301603078779, -0.11987710820036965, 0.030621147331730977, 0.41447447507826796, 0.1663676159811156, 0.08423166244532111, -0.04861264676829207, 0.08165373011004008, -0.127928104273336, 0.0395775660241242, -0.2512763084705039, 0.10103580638007412, -0.08496640218167585, -0.05737507526012494, 0.21973470984453705, -0.23335884230146722, -0.037022083995597345, -0.027705761314134766, -0.1720134002595088, -0.15448142026250586, -0.04395102405193705, 0.25750889311543385, -0.0358468034314695, 0.24803734287223927, 0.0629356916605147, 0.030425412354524093, -0.14618990419373626, 0.0007324919226907125, 0.18624632751837789, 0.0683077522761717, -0.2051072373412297, 0.404662367227875, 0.3405465643997018, 0.15043257554001646, 0.05971993627225191, 0.1930577423907765, -0.01396437848245497, 0.09940247345056526, -0.27068143227755576, -0.022644726567575855, -0.16030695802025388], [-0.0037270336846768597, 0.06060149068316222, -0.11142235272578105, -0.5093409382162198, -0.09551470076910848, 0.2581197932510926, 0.048753077297625846, 0.017864520893402066, 0.19690485832267746, 0.21723917779090773, -0.44207461961416145, 0.08384495555702152, 0.12112025872791965, -0.006612019429926294, -0.23291432715809662, 0.18453026927954613, 0.11650093876039683, -0.1629289257546166, -0.050725915144109915, -0.38174737361296884, -0.12125875217551098, 0.08586014404526734, -0.224745627149532, -0.0021552649306580598, -0.004301274143602955, -0.24357850939124942, 0.22565116338985494, -0.01522894222219834, -0.4193178783941288, 0.14290587455221387, -0.11796361027395504, -0.2899330396843944, 0.07497876667220184, 0.2582037438553176, -0.07713874316949026, 0.17127179836089668, 0.13862570933715027, 0.24906677076888878, -0.047639319216630595, -0.07320756000576613, -0.03660410871054763, -0.006988617848253655, 0.15226867768749358, -0.11738959950797495, 0.01872449719645516, 0.22820761158896163, 0.27105026368776897, 0.22435950766553872, 0.19962310916499573, -0.06465862340247272, 0.05625600936561963, 0.13015020336443475, -0.13728675128022386, 0.13301670592467957, 0.2542220026727548, -0.18306533548785722, 0.03863839173092582, -0.09675564396685851, 0.23928132437427668, -0.29282415254109107], [0.10223586880983244, 0.12530018762569745, -0.12201497944512583, 0.44394729762314783, 0.30745944727439595, -0.2548230785401824, -0.07574358745205703, 0.022973250869385516, -0.2235698408326489, 0.006018939309160857, -0.17298904322859235, 0.2850734302338241, 0.08346275371812473, -0.020531538538916053, 0.12715577677539674, 0.03751212111658797, 0.1530039784365059, 0.2637324866032248, 0.008914297773306473, 0.3741867004351981, -0.06842222432848044, -0.10054972979441147, -0.06812323860830587, 0.3053161586821096, 0.27990747250761433, 0.2232485257392162, 0.14672652417535045, -0.03714330735455386, 0.2648629130646099, 0.07966910109312744, -0.035743199679851415, 0.013259167872815059, 0.18821157903167807, 0.03468698384044252, 0.12246272801516224, -0.5154123132468992, 0.1766172579107722, -0.20753022713022945, -0.002705366164535284, 0.26356954326154575, 0.00746420251418966, 0.00014283237595577906, 0.17113522839922324, 0.06859835783907875, 0.20322546011055304, 0.3175442522744755, -0.2129699636876183, 0.06419432439263942, 0.0619955389032118, 0.183369578025127, -0.22609815817556142, 0.10277241077981361, -0.03248726703438913, 0.02769776612239063, -0.4610609555483658, 0.2683094204883969, -0.06426017995729792, -0.2235823668294441, -0.2439397593317151, 0.10883107981121275], [-0.11012766205538872, 0.28609777547654364, 0.04508045884640709, 0.12409561363497314, -0.27054701368415685, -0.07555526576237838, 0.2665887382368784, -0.11811153381730596, 0.026170972902118044, -0.16895200338041505, -0.0030730744951786523, -0.3233042271176395, -0.05120129250412293, -0.19007095719994335, 0.10279981156184229, -0.19072353024410063, 0.1945251190945389, 0.3491932929053988, -0.14119526908286079, 0.17610440249432857, -0.251776657550424, -0.18730307136517543, 0.2639062754578303, -0.15329862952383333, -0.3628012216988146, -0.10796290834026115, 0.21909254347133222, 0.3398786258258556, 0.008407570435467521, -0.17103459744176946, -0.1078474824311012, -0.26164372235185346, -0.05009682575397427, -0.12938056116249114, 0.20461274853983294, -0.057765890231451206, 0.04042068672099053, 0.06945306891769645, -0.07798036037869159, 0.08472172120042379, -0.12824415133459746, 0.41914496330899514, -0.0786752380888715, 0.07564561936917664, 0.04210770853769545, 0.3118353638502192, -0.08612612939842663, 0.1296828023140177, -0.27039866053363226, -0.47290321188612966, 0.19363062290650604, -0.06408678658802283, -0.07424291124892882, 0.09650030555326489, -0.1614779362061371, 0.37780001003250785, 0.062387528343051786, -0.19121686163241214, -0.28720563249639225, 0.10465720489939856], [-0.10617078643948782, -0.15987522394911116, 0.08968687233458698, 0.009059670333744637, 0.012808449219228829, -0.0817066015986302, -0.2167836722036735, 0.07582753491302661, 0.035015547064345356, -0.016535016932884092, -1.7545676420069066e-26, 0.06795031785090239, -0.003997941594470731, -0.18957827313921363, 0.10242713469127768, 0.14309461703395346, 0.23596045148325515, -0.2508176384150641, 0.036584672056541014, 0.42223393311430313, 0.008922016337604234, 0.09853080400300733, 0.004037111003091024, 0.20361618706814483, 0.0691829665980213, 0.22757287928550338, -0.15154134137259814, -0.03696989120786201, 0.11790246905258218, -0.20300481215729077, 0.11325445510949655, 0.4637073352431792, 0.28526030631092264, -0.021942632426013728, -0.24252470534295625, 0.11506682414214023, 0.044292205778968384, -0.039403220711479454, -0.062058252736076874, 0.1554900517323815, 0.06893687962711, 0.2751234052691611, 0.2110937411879058, -0.2506875484758613, 0.17960935088206276, -0.07014177139371548, 0.2188041640262867, -0.08663364325361894, 0.05477682446096406, 0.19979413646400318, -0.06201026246860978, -0.25759168250079206, -0.11989198752566954, -0.3161205240315843, -0.004907672151720156, 0.14987566734967192, 0.17056305638983743, -0.21804855499848527, -0.00351496518259555, -0.07674921791573833], [-0.11760695803761341, 0.06426339128818999, -0.1396162498990769, -0.0957594069481635, -0.05801985479812649, -0.1439280698251172, 0.2796132892638016, -0.1454696830259796, 0.29446002263731264, 0.011717185166817294, 0.1225035180967664, 0.15223028514110712, 0.25248158350550665, -0.4436166537219492, -0.013427414544092684, 0.03277773806080584, 0.027315334065988718, -0.00595226364996989, -0.10447415359939653, 0.0629245302635139, -0.4038625725882431, 0.06608537458996239, 0.05755478327913205, 0.08285232041696454, -0.2792592950406815, 0.33795352348957125, 0.04413313913975177, 0.29767997346164293, 0.2377798293107506, -0.14732414122348556, 0.21230379091020726, -0.23547321815499594, 0.11786463412698737, -0.1724977464456711, 0.2087377802267095, 0.10631089782143086, 0.2126072620166614, -0.3578093294274756, -0.02053082344327494, 0.08430743524631919, -0.12059552255967278, -0.10029309640813275, -0.09858655898145874, -0.05760296674783624, -0.08171621539478609, -0.12276540312248371, 0.16676693294468317, -0.06873887822973687, -0.04965817707070753, 0.3303146175310336, 0.060198513454288206, 0.11693929671093724, -0.22756522744903657, 0.21411431045576942, -0.30469920057137, 0.02334416189280488, 0.18588058054667816, 0.14943119952278805, 0.0994493084136516, -0.16108439920548984], [-0.4529617784949604, -0.32618049441186836, 0.14713637539093616, -0.026338120507058208, 0.22149179391496726, -0.18459269211691606, 0.020014588223254977, -0.3085093920981706, 0.11216053347430714, 0.48159119649312865, -2.120972442371449e-27, 0.3534584958380961, -0.04779345420458774, -0.3958139509373038, -0.016676683547249715, 0.07678741286983176, 0.13183730310972477, 0.27827952406291023, 0.026031983885602173, 0.02942470458307307, -0.10766728724987515, -0.21478398150982006, -0.17864695130482877, 0.3793214298601157, -0.07923178093037221, 0.2120828211824902, 0.08921644136232107, 0.39975104981617926, -0.06724574964216332, 0.3257379336884819, -0.2556209408106463, -0.3526092798373867, -0.4320537939382619, 0.39812555149935197, -0.05897862539557286, 0.03298287411888828, -0.0481413737904095, -0.17857961383224435, 0.05013360704098847, -0.19422634156984245, -0.4622396932519564, -0.2996852775064561, -0.7811593187863028, -0.3857953838496856, -0.30466336520918, 0.4033975329101429, 0.11260254757891314, 0.23631192464510525, -0.091800340280835, -0.27070100852354023, 0.3130494403586479, -0.011496844090321789, -0.06625422447645968, -0.14336176843668652, 0.48817626542320613, -0.05251758903702481, -0.536436522770754, 0.18253355210799585, 0.3648443335094322, 0.1783623055802544]]

Weights between layer 1 and layer 2:
[[-0.02344744365051964, 0.2898684042234088, -0.16827076229618296, -0.028458762786221527, -0.09184863448309771, -0.200991246594839, -0.08798529419559249, 0.07150181115512877, -0.041114880336807776, 0.058927789156855766, 0.11719926178091312, 0.03686443158708492, 0.2808479679416994, -0.24629879991141534, -0.11761885060011251, 0.14619437418400458, -0.01886854334866126, -0.3016578720237213, 0.1587049746787775, 0.11387340707205001, 0.10876471159814159, -5.853719908336875e-13, 0.1329888039004385, 0.0022936513581358195, 0.02105409475131883, 0.17306891716650388, 0.07432443137263982, 0.10698630872196635, -0.26468190802161573, 0.0638468154371625, 0.03503578266847683, 0.06949179417685653, -0.12482605978353561, -0.167645070610509, 0.10208715046902331, -0.17249284001175613, 0.20763086788700852, -0.02829332294648531, 0.029145615802115554, 0.09774442039137898, 2.0693828711851288e-14, 0.11658491278407522, 0.05342036691745548, -0.2551936808936235, 0.05063987414111899, 0.07682959381659119, -0.17281853564686503, -0.13443010427346028, -0.03221327348200856, -0.21795407936753544, -0.11074673230945942, 0.005759097401077131, 0.0558709552806089, -0.05402921556108611, -0.21156740388709602, -0.10868673128202873, 0.1407321283532115, -0.03870988259425905, 0.17576912927475669, 0.12044342495062207], [0.19739184998486892, -0.026195113766489562, 0.08031024220333187, -0.12527656323622877, 0.07216378348828754, 0.16441429777333189, -0.17122090635194478, -0.18454317588203786, -0.08867815689121246, 0.10011317684183266, -0.1884120399202616, 0.10972061448323167, -0.22236362961074824, -0.0019544188866482152, 0.13170225014006323, 0.1447642531754827, 0.134823085708727, -0.10054836322662239, -0.12602715415228563, 0.08236718631341272, -0.0233590205017644, 7.178664454506367e-38, -0.20976607003159295, -0.20662456157484255, -0.2965373757235011, 0.19938633743855527, -0.1293114445331024, 0.16156135599951096, -0.12918404410375944, 0.07388062486411719, -0.08049537683002611, 0.17698689971894732, 0.24081573854050878, -0.1418395233927073, 0.16631757451978665, 0.4573759263716682, 0.22322747329910614, 0.10308713333336632, -0.28491462771267617, 0.09021415778636856, -5.545014124796131e-13, -0.16000581272204373, 0.24770275547791334, -0.10234706874170862, 0.1377444522125766, 0.11845778425349211, 0.16804863569065492, 0.21777948769893726, -0.1687868754403431, 0.05283102729531047, -0.04627242238304607, -0.06822916881984381, -0.3758571785822659, -0.08943649412965358, 0.09049289422192808, 0.10248887998964964, -0.05073241138065148, 0.032769502041944974, -0.16672199596106832, -0.2189294288979589], [0.09449174829968968, 0.040060519950189534, 0.15430003089134556, -0.2249313009583165, 0.2091755385339807, -0.0004405755059230456, 0.07501199235973453, 0.029372539029617777, 0.17143309452323116, 0.028823051003851043, 0.11684736398651442, 0.2129953002390154, 0.12440455146891685, -0.025919247135983346, 0.09469695157957295, -0.009003616865880696, -0.11061394371638571, 0.0657789240958658, 0.1548133026134386, 0.2180188729516993, -0.07499933836229983, 0.0068584568561271715, -0.13160194309281778, 0.24051248105521994, 0.2878313891964094, 0.07217858566406471, 0.1602235289597932, 0.07153265244212476, 0.09689790864188634, -0.18336078196020475, -0.02701106582917827, 0.07274933161816816, 0.11858380455194382, -0.04214870581685784, 0.21171424877814282, -0.16632399405626844, -0.024503462552467922, 0.22429236951151935, 0.23728747190285276, 0.08115444471395412, 7.578122905604197e-25, -0.1496279276556168, 0.01614939866771504, 0.20647589563657776, -0.14298559964694052, -0.04363149054251794, 0.0011753129749715145, 0.09466453479866078, 0.1594649318305649, -0.1711787600089136, -0.22582629170277463, 0.07129937408750321, 0.14542881875643954, 0.09708737585020126, 0.17624603859428012, 0.15623723987921384, 0.22090565433320836, 0.05827818008833211, 0.04310992221903131, -0.0013692476392796094], [-0.3396871785097015, -0.05415500876091307, -0.33456122337544464, 0.17760025770387863, -0.30639743619837045, 0.5611114987731387, -0.09183307667464734, -0.21795839826295416, -0.17673191104240896, -0.18603001967502458, -0.3600332553162795, 0.2041370001313701, 0.1480317371390227, 0.16296180926403445, 0.03905196261465273, -0.4770804249333043, 0.6277219470152053, 0.3463714662848239, -0.06373041667279898, 0.07470812344719345, -0.06571172296469904, 0.12069984900752788, -0.030951682592248588, -0.7943240282707377, 0.1148314659305943, 0.08910583339493185, 0.37536819893739404, 0.05806340789363236, 0.2249547351712641, -0.1273710183308159, 0.19254957037858803, -0.19860991389796734, 0.48200768655921156, 0.13215518162385437, 0.11709477888201617, 0.4312617964780711, -0.03880689994026789, 0.12836053937985165, -0.34361250638029345, -0.21257904197880123, -0.12280052300000624, -0.18537030354850154, -0.1126498249757451, -0.26375157447080083, -0.4625429550046742, -0.21006442651660506, 0.27605306278015723, 0.23950316227172602, 0.13689300964489712, -0.012770085220991207, -0.09366241759696324, 0.1971479063139, -0.07854542616264515, -0.09773372401149469, -0.10695104357600829, -0.6379232797595633, -0.40506684654016945, 0.009698321140170735, 0.08158406177987998, -0.36065692183052606], [-0.1436442603190243, 0.13203336077317107, -0.14009394076125065, -0.0866508723599075, 0.20338504468931287, -0.17452358523775358, -0.17359306079322018, -0.05402207455817579, -0.18308403670205708, 0.04162331801267466, 0.12769536470440182, -0.189134829430705, 0.07069791488770871, -0.01652722238936212, -0.16805887786408003, 0.14093786737822728, -0.13498950435259657, 0.011005873593845153, -0.20198052374036063, -0.11400481502892829, -0.13465516299268032, 0.12927573164100997, -0.17502418657265395, -0.5554421875501472, 0.01275215560984593, 0.11808840810363685, 0.015481453869176157, 0.07614359087265293, 0.14461213376860624, 0.2183780170085691, -0.0019441230265242065, 0.02174987013270123, 0.11950287209410627, 0.2396123113902612, 0.15953434300551894, -0.14025619529172345, -0.17252338560868047, 0.03126519580660253, 0.10369254790284581, -0.06155677529793903, -0.022430435579209505, 0.18658603665981244, -0.020145068011438803, 0.10784808392198285, -0.11665729872857224, -0.02991523936272776, -0.07340543637735648, 0.10740563907724364, -0.15979291312629976, -0.21191214622643445, 0.2036335482370791, -0.14531726565649436, 0.0344753322058139, 0.04115167296984445, 0.00510895010954455, 0.044989413243511335, -0.27686357784561816, 0.033753068820240116, -0.07072157232338273, 0.09010730034509935], [-0.1747745911030882, 0.03572746018577558, -0.17524263326696884, -0.11003960986603466, -0.31168470429973977, -0.22116256212282584, 0.1815800342459914, 0.09896492236381617, 0.26318498633953263, 0.23538880870118808, 0.01921465023962942, -0.16877117643214373, 0.013259675768439588, 0.10900305417243167, -0.064094067073371, -0.2228931534021747, 0.036741582053328975, 0.1415559646996395, 0.1377704973704, -0.13313532172829068, 0.1419250424473575, -0.12408340723868619, -0.13603594298239924, 0.17553411835851077, -0.17494473658057894, -0.07834684571972883, -0.21563402445294985, 0.20259616188479493, 0.08973634106812693, 0.042187752663488676, 0.11243269502762178, -0.19081019972054125, 0.009963113208606923, -0.07449861740669846, -0.20964627665964272, -0.003131489231476923, 0.24716740108474347, -0.2958121032871334, -0.06050568813047726, -0.09459216454499285, -0.12410061330745337, 0.2227531677655425, -0.03959482897467977, -0.02352950713856792, 0.152274919201681, -0.13155403858780934, -0.003142998428946547, -0.02893001479724403, 0.05138852234872126, 0.21156745956264839, 0.11783665853046998, -0.03623121042900055, 0.10267993685132355, -0.1680618045169544, -0.23540555879273609, -0.08770136284266147, -0.038845013159232895, 0.03091321818687854, 0.09646534634109706, 0.20492583750680288], [0.08346354387819241, 0.04828926913394387, -0.21016337316475706, -0.23096950659758042, 0.0655400794342917, -0.02075873983367872, 0.15508600327790292, -0.0341000859190405, -0.24959414132266955, 0.025086570272855758, -0.10412793121022368, -0.1842841317138037, 0.12779251596951133, -0.17751571759612106, 0.03344410016542303, -0.21649441384480222, -0.03458961945172479, -0.04739843810960715, 0.1350941772444793, -0.08434673204003469, 0.2013029437366688, -0.18008231681548573, 0.12744591706659483, -0.1535583903178578, 0.0648284396851353, 0.05624968091787835, 0.12730699039770385, 0.0197171468214958, -0.23580358293354867, -0.2317513753897013, 0.24770471943620612, -0.01623238375720591, 0.12726638878809177, -0.14875735540366983, -0.07316071311699002, 0.020052717120172384, 0.25754954089715076, 0.021888667476649106, 0.2597480518018642, -0.08053009814726424, 0.029859206824344696, 0.15252625644687748, -0.031905001385568954, 0.11474190140171488, 0.3069881853792535, 0.24172538233100452, 0.12911341332013834, -0.07906413228146512, -0.14816714990081994, 0.1928873746254069, -0.22147520228588727, 0.12709945955996066, 0.04594466015989728, 0.031672847908634685, 0.18596768658318474, -0.007071878635754372, -0.02067109772456839, -0.2034824814754675, -0.07570099979059068, -0.11958556791838064], [-0.023737082038489406, 0.1906405239621863, 0.25521583196116054, -0.16332881052404846, -0.08265390670739584, 0.2414504942796614, -0.17057784441037266, -0.3184050399926328, -0.16777716398692902, 0.06963144113647363, -0.1681747173444083, 0.22305117064320568, -0.055824216819956744, -0.0342048851203565, -0.11742042040466208, 0.01169513634871836, 0.08377259888030862, 0.11255726247378114, 0.12238838312854414, 0.020014903839151683, 0.2351361919757247, 0.13035210754918652, 0.1479110826916668, -0.24166052021616538, -0.2364115794542686, -0.1346500968577332, 0.05182344510310519, 0.019411021717623284, -0.0034961227457126942, 0.16514181676006104, 0.17889468545249332, 0.15983242842942735, -0.07146316577714004, 0.07222045745609725, -0.09896299455240733, -0.05012301853248097, -0.10865906504074652, -0.09529430050023577, -0.021960658409797905, 0.15826184281946867, -9.625152643693273e-15, 0.1504794096611577, 0.009493246249824432, -0.08900525157448451, 0.05653849970337027, -0.0965634087381529, 0.06018237538017578, -0.031741169647730855, -0.1801230663304036, -0.21188039467645156, 0.008084705902954207, 0.20829091350786583, -0.11054059450433126, 0.08266207218670198, 0.05788130569486059, 0.2715877438718039, 0.1900767737402936, 0.025369512373589725, 0.034316866667684055, 0.2130820353769102], [-0.03938576800052461, -0.10856383937970057, -0.1329470861926754, 0.13810288129655374, 0.31859371635770073, -0.6136198881572491, -0.006077570449368035, 0.15606952667490254, -0.22937051095577596, 0.2140953685335174, -0.1710185322651152, -0.1952164188985795, 0.16742960511329708, 0.04558105376065594, -0.19562723029061557, 0.12237310320298267, 0.044129599081798636, -0.22913120231658124, -0.11153251663964757, 0.0035209906792070906, -0.05367326035653963, 8.084837416450992e-13, 0.13114336780589014, 0.25170178914261393, -0.18144846836115683, 0.1873865410139365, -0.0035247998228788674, -0.020035242738244922, -0.3261412288564535, -0.2226029221294438, 0.11746888177410537, -0.06285532389887438, -0.10619647855034604, 0.037037188663311675, -0.14372519644803705, -0.157674913500579, -0.05306321948986347, 0.15168255261188132, 0.23137306797179796, 0.02492096575814942, 9.734727864581359e-32, -0.02647203416869186, 0.10379914906687672, -0.2016360634322187, -0.09226305468816923, -0.18252607514328079, -0.03148818468630182, -0.0357936921371276, 0.16778520992810136, -0.15971210956303342, -0.05200529719959725, 0.14587242634748437, 0.13302531752680632, -0.058339510559305995, -0.018068618016795858, -0.03623124414365144, 0.20642570231920931, -0.16139322968564904, 0.21622534251305375, 0.1336926624694756], [0.06828270683505641, -0.1463549077818262, 0.15450177156107336, -0.06589152820654928, -0.07747563860092754, 0.11569382007731668, 0.30684526984530436, 0.13397733618201718, 0.07509297921859524, -0.212180496676245, -0.22597129883465922, -0.15342980486642827, 0.4385151454159474, 0.21958042105271666, 0.06845908735074606, -0.07388262551442663, -0.1384849969032224, 0.05202922634991122, -0.04286970893114811, 0.07065415114202121, 0.14394439000767606, -1.2556105621371437e-35, 0.03392216774626223, -0.11862415872340824, -0.18675181868135546, -0.08800067624763927, -0.03376732493524525, 0.1036577012006436, 0.21339889855071906, -0.11655715259276368, -0.15139733418262974, -0.2550864752251745, -0.18798013245891568, 0.1280905965241868, -0.15821742555628238, -0.0841709114279639, -0.11480453593146293, 0.13658474546507932, 0.06122218862051933, -0.11870033232357376, -1.7651084106148473e-43, 0.1557836244245103, 0.21942448968519926, 0.0017571336195426172, 0.2264221081087323, 0.1322962278783202, 0.2468494190402215, 0.011604166595658006, 0.03359969801513451, -0.3909564214923568, 0.11492417405611241, 0.015034016340308341, 0.11687972359742776, -0.053130561348308514, 0.08796755497370826, 0.2444259864215532, -0.1151350127671688, 0.11511945041510935, 0.01929180095320505, 0.2733979015217001], [-0.03296245952992866, -0.07473886992232151, 1.576961991684935e-13, -0.06300677452027219, 0.03725430409421572, -0.05049420710910645, 0.012384563951351747, -0.054780188624922434, 0.15142430166346957, 0.0029415905670034694, -0.148980064420729, -0.17222193692607443, -0.2842782586095199, 0.4357198317616878, 0.1566113403747045, -3.5605801228490847e-35, 0.280900561545949, 0.26059213228943157, 0.04972757354608149, 0.1806501926453258, 0.22342518513293871, -3.603630289999745e-36, 0.09092713662361393, 1.2280100023417371e-24, 0.42567095656438464, -0.11017037332085072, -0.06651590682824281, 0.16686978168526234, 0.2899001159290788, 0.09316512602097017, 0.31216238121022527, -6.534908385620798e-10, 0.0843217727241079, -0.07155386356939757, -0.13360315385373653, 2.1372059558259947e-05, -0.01948190678886242, -0.05185167993305712, -3.4913499483047214e-09, -7.5156160170776164e-37, 1.1680279414512259e-21, 0.05016973743799274, -0.1476996049644756, -0.03349197444965602, -4.8961945972984805e-14, -0.23427682779798578, 0.10427324511870902, 0.06460173481576943, -0.18421085662270004, -7.041033645215652e-21, -8.530052836242742e-12, 0.18079332842345772, 0.4304594450160538, -0.10946493577331376, 0.16122469765715244, 0.12557492802148779, 0.12119572996945109, -0.005972928837891583, -0.27111249450801467, -0.22136270089980667], [0.267897108726456, -0.7249884426445635, -0.5992369452113445, 0.01751312155155107, 0.26731190835480945, -0.5429823016349398, 0.2076013424663817, 0.6026104341313593, -0.21345681147549403, 0.010262538613122199, 0.5083087071910445, -0.11821954116474878, 0.3383125694298873, 0.12724895155263063, -0.11850278026573328, 0.5785405385223713, -0.06752819939312672, 0.2423174945341328, -0.49440860247001145, 0.10039283736926083, -0.17447978874774925, 3.417144425803021e-18, 0.19766337111328394, -0.11238808732958674, 0.607093241071123, 0.2051973940329519, -0.49988051320587285, -0.5089394880315469, 0.3133135648485191, 0.4205859002429729, -0.04234298021576702, 0.4131910456828192, -0.266341984521726, 0.1556446663053478, 0.5074904238414633, -0.5336194091605468, -0.5534719834641435, 0.4770894723418731, 0.7530219261922402, -0.29584654227436996, 0.025463393822982964, -0.2854458978376899, -0.09831468576546837, 0.25488652984023435, -0.14415018834116725, -0.15801645541468512, -0.10464383679446133, -0.5374021514732232, 0.08758812136031909, -0.5327214918699753, -4.477804968661984e-12, -0.4707244775468764, 0.6294611843729793, -0.22152331944723147, 0.41215265615491364, 0.2881293505814281, 0.5886973471346275, 0.25535393580756444, -0.14959231132303127, 0.3044460429726532], [-0.04464629664025067, -0.12668529609399973, 0.31148571773124406, 0.12646404783009307, 0.17065790008465642, 0.23569818534016265, -0.016087579050984173, 0.008736706653255964, 0.1511138033065952, -0.15593024337649752, -0.22310179368478741, -0.03312695589802475, -0.27250369974090977, 0.23028445844655568, -0.13860428451881796, 0.2469147417075747, 0.21807802114236619, 0.17317965543005415, 0.14479529940713728, 0.06860753565890067, 0.12965577775664353, 5.966544527149034e-27, -0.021969091934846918, 0.09230755635569313, 0.02898108301285053, -0.1528745949482308, 0.03747839282167577, 0.012340473794905243, 0.26709626369815825, -0.11201557178473982, 0.1453796761052937, 0.07911464736697653, 0.1852983059969335, 0.02473093281845387, 0.1911534439612707, -0.0846503482009764, 0.3202745763525441, -0.3611295504918662, 0.13155857315506528, 0.2367438786137675, -6.3056321422943204e-27, -0.1748530324556521, 0.05926618022118365, 0.018488212330422638, 0.12447354558460719, -0.17748590402283576, -0.10535716074145843, 0.2604201279336617, -0.0073389894086121725, -0.2608840116249197, -0.07473401311942295, -0.026209000284647916, 0.0871904479534465, 0.06875238405733247, 0.12014418063194458, 0.026858979719652586, -0.08211198792480608, -0.08297820588815043, 0.18664835349469272, -0.11562002330412677], [0.11226509968277786, -0.2232418998439067, -0.07769487745555777, 0.09854356503365863, -0.025818623071360354, -0.418603784452548, -0.10677920872535888, -0.11385434260261985, 0.26440915924727904, -0.25244584261107206, 0.08042854982450792, -0.06847866837263945, 0.05173939894874484, 0.24125755752551015, -0.0799876904393989, -0.04569902367399822, -0.18760194271763253, -0.045189945406095874, -0.1011267296645206, -0.25590385063307364, 0.06949185051462219, -0.04350852768014376, 0.016622696691918327, -0.15348603904014296, -0.1296902468652351, 0.04254267887919047, 0.23422667812726083, -0.22420895458521403, 0.2920106022390314, 0.13608817407608756, 0.06281579203961242, -0.0008008745928251007, -0.24527837747488432, -0.23232271043243094, 0.049989670467592964, -0.3793329298194376, 0.20046009972279397, -0.02894328970656993, -0.1271470583543987, 0.025511893813917046, -0.10928284174946444, -0.054955663418991135, 0.14989104822096064, 0.21166482461888342, 0.22994158670530018, 0.09901036808370765, 0.15307580252139347, 0.16331135583715603, -0.1477200583139229, -0.22249858374832346, -0.10100821676143508, -0.0923640090881117, 0.12284800069264303, 0.10830137219279652, 0.07081578231698824, -0.29904997735755245, 0.16041830025314024, -0.11795348655902956, 0.03530047862057535, 0.024659154348723487], [0.009049819388020831, -0.3543391990346289, 0.01947318715335502, 0.1348161803956685, 0.4056875716195219, -0.16790566419454567, -0.006323169662003361, 0.15933442926553487, 0.02032564057843212, 0.08411139828836388, -0.28236444995018906, -0.3958032561103854, 0.15890223552906305, -0.03511148203746632, -0.07338565672550063, -0.055479326065303855, -0.10629077183213538, 0.1778558345128791, 0.26143616293711575, -0.09658245069532294, -0.38613768578312546, -1.5633778468783644e-13, 0.18031256196497863, 0.09429065358487469, 0.05841138666652992, -0.07898666343493073, -0.022668829626158377, -0.40482944798593035, 0.11324393688777504, -0.14762204554855682, -0.24094761833560405, 0.31043699739315245, -0.2414102868000323, -0.03656370005536941, 0.2204105497143289, -0.30124529605102934, 0.1219752192356816, 0.25715666613675214, 0.13711150805190897, -0.15162776067019917, -0.05359225296962042, 0.03914507918386927, 0.07330509262847333, -0.0378398670020933, -0.4201593599254712, -0.044425698521544044, -0.11422623861552306, -0.13417973614783515, 0.03380379667691597, 0.052524299750710046, 0.11562784462890745, 0.15571169112710015, 0.01432146888122877, 0.23692374355007012, 0.22665941524799124, 0.0878594889089902, -0.15771306401482227, -0.2745090163302477, -0.08196711969387124, 0.1476673851324359], [0.24730030982622295, -0.2068516919820888, -0.19725962063956753, 0.19420835715201792, -0.2923660469182831, -0.25975609362886287, 0.15823089359044828, 0.3805772177911446, -0.3715064800307424, -0.19169571374025565, -0.27915733665748216, -0.090055154035122, 0.07672907111179675, -0.13201509642074874, 0.041205525000286056, 0.21565303031495625, -0.2908259464291682, -0.1175303636677964, 0.057740563765314834, -0.24133991273090677, -0.09068032144664016, -8.58223248043711e-35, 0.35592435763256475, 0.18105334478270127, -0.016469676810917416, 0.20360537059244016, -0.18803428653170587, 0.03110530231042321, -0.03954318686641509, -0.01723481442725046, 0.1253175383745844, 0.062053146487107684, -0.3040133629380317, 0.1185992998007887, -0.22067479322384814, -0.2606341002533326, -0.2992832024122338, 0.07377366892885727, 0.35642539506158266, -0.17110777226371723, 0.060436817137952396, 0.05572770888526353, 0.2147096825044718, -0.12810489128545854, 0.05729824336133604, 0.24812028086312626, -0.13537399101135297, -0.3977634556338558, 0.13039587579776343, 0.15375487615975733, -0.053456351023217094, -0.1368858636828798, -0.10874428587352551, -0.07568228153756598, -0.11214224677403314, 0.28847584178592595, 0.29465110380064646, -0.033394146555073105, -0.08131945634843293, 0.18968477735115483], [-0.18702449031938279, 0.21720219224942058, -0.05645554862940612, -0.07358625566762586, 0.0830756885681905, 0.007476292587618409, 0.042041470948926775, -0.05345198492887096, 0.14596363413395813, 0.23349380783882168, 0.07168212348723485, 0.21695600721514044, -0.17150519660959598, -0.04954831875093795, 0.036402232869483395, 0.03196467795960895, 0.0034034140375188925, -0.07077761559485933, -0.17902995964189805, -0.014466378498076795, -0.13062106057179493, 0.09740185254768038, -0.13983361424237448, -0.23951895834832276, 0.036805919382812385, 0.0950531979637544, 0.13915847830426417, 0.0817364959551943, -0.06240010266003328, 0.1188547084091145, 0.029822316017890867, -0.18077801215020117, 0.0767281320116708, 0.16107747136601583, -0.06584203421569321, -0.0982960140718238, -0.14061629068381173, -0.1669925080031274, 0.00023346418129985448, 0.0767415148081123, -0.19662369502855434, 0.24474820894722332, 0.11263764369099574, 0.014272589061703244, 0.14820305181290921, -0.15524334572454568, -0.030622748786123248, 0.08524632407823192, 0.1538394004963215, 0.16458568180996894, -0.12768840692863925, 0.21234024183553446, -0.22233856614137687, 0.1541662717251401, 0.18242306115475887, -0.11332738091419997, 0.11799550337872115, -0.17007426949627702, -0.05577793418100613, 0.01137546334016926], [-0.1121208470145796, 0.1654990815974395, 0.35109433168993814, -0.021944571293688757, -0.04381727563621198, 0.5109915317376041, -0.5010609891923697, -0.7224242602435518, -0.08771147840753034, 0.23656121511229453, -0.34587040362410065, -0.11371279616609183, -0.665783414476291, 0.15721173567276972, -0.04251323896125177, -0.05902591510351935, 0.301118190963166, 0.5001279506688083, -0.17140055731293752, 0.03224456530000338, -0.1565660033485365, -1.92471388277665e-12, 0.03196486610050259, 0.12341484547608951, 0.23521404876422064, -0.012482897692271313, 0.24902655773203597, -0.21340896292956893, 0.2958673437122143, 0.03534359185387019, 0.33179174779516846, 0.20291929691393645, 0.12042493344708868, 0.4683768156416286, 0.05437328882715898, 0.4845066828262316, 0.025931003014002998, -0.1883354591884799, 0.01896298896404669, -0.1841013865638703, -9.296964819354677e-13, -0.17576532412737164, -0.06302114987874421, 0.2503245814473712, -0.1927809979366915, 0.04928668671968399, -0.13285122729109144, 0.15219540913260654, -0.13544407488834462, -0.5670753220533606, -1.1548148579231496e-18, -0.20074371132411842, -0.3730168696097378, 0.0031006766284957005, 0.05890601840478171, -0.16191048535305033, -0.18514249223437304, 0.28157713238370496, -0.1561756668833403, -0.22515263522962495], [-0.4211499779356086, -0.15146685672113244, 0.09402072455286259, 0.007196075226914527, 0.11376073768938416, 0.16556975555347217, 0.11301592119278436, -0.3662436786407589, 0.10317007839900355, -0.1496249209618152, -0.10209455154857629, -0.0035028970841755372, 0.0348634568726347, -0.21454919332484582, 0.20851242291563452, -0.12007320154816437, 0.10355123963210809, -0.24639661795033344, -0.16597251041289746, 0.055264745607286586, -0.0753993176920441, -0.005042900864927592, -0.28050999091603496, -0.305982126596869, 0.2247748670653693, 0.13755228371940187, 0.2279013834455277, -0.14154809818397626, -0.1154713362406358, -0.0656720267993086, -0.17502593191533208, -0.2809485590934783, 0.22860883327652637, 0.1464966355673761, -0.09224073553021152, -0.0789762493317726, 0.017542775905947813, -0.31973455515457944, -0.012644042281112685, -0.0877223351578514, -5.651312320799476e-14, 0.25789884773778643, 0.021531984557135946, 0.021589308212707808, -0.34796140248738844, -0.016771706559571723, -0.28913173058452357, -0.018587552988674202, -0.09051517024215046, 0.2632806743475481, 0.0568610048126733, 0.018032845352721774, -0.07004063164430768, 0.23585792958954366, -0.22626554916912042, -0.3689563532788561, -0.22898510833479907, 0.2310942040267749, 0.25426705096676644, -0.25707228490638656], [0.12697096781414086, 0.18850063980128876, 0.041734564464763146, -0.06879777946125538, 0.13620535725543437, 0.27850614208569324, -0.11926280995638312, 0.15871621807050976, -0.4651175844760835, 0.32921917483380986, -0.0570495307288848, -0.0674483357141693, 0.16170089585634503, 0.08033773972426234, 0.17136778919975154, 0.10523918047850199, -0.10920714478313875, -0.33505026463439014, -0.10476301110042491, -0.07179258978830788, -0.06232039775150215, -0.00416159341672096, 0.5270023727360349, 0.41790806897167676, 0.32674779857019703, 0.21413514371549666, -0.3501374298996538, -0.16536595175033464, 0.18021092689378143, 0.30329966956757837, 0.002490890083053283, 0.36629086289243734, -0.26783444785578236, 0.013876301269019882, 0.12553520348430613, 0.047035212171070026, -0.07589127274251367, 0.07334948205642597, 0.08753354916414323, -0.44040132730549275, -0.1566846250548965, 0.25360660843574523, -0.26237994238392315, 0.16636045268257868, -0.10277014352118374, 0.06320488793456172, -0.40815911180451986, -0.2724059138798681, 0.289768360368136, 0.08717729797969459, -0.0673554402134141, 0.010482006456015148, 0.11772039925813318, 0.02614146268034192, 0.13751701467174193, 0.3506985578150521, 0.48997077680349405, -0.054715881010849156, -0.11897473369367773, 0.1707108125506407], [0.028416747420820728, 0.07084202509350578, 0.18541980850799838, -0.23526569095101535, 0.033940828667294386, -0.12685581313785207, 0.16250877609418382, -0.31076478394785256, -0.017106489467462318, 0.3601431233839124, -0.3632853645375001, -0.10243805880351722, 0.09066759236066244, 0.01620355500182008, 0.016364306704853466, 0.07903060805783944, -0.04200732556361897, 0.1464101687198128, -0.20056220020546947, -0.2727305449166036, 0.26503251976578673, 1.8220984264824145e-37, 0.23495169917582057, 0.05510241389962786, 0.06786440267108265, 0.09811006701082631, 0.03982017884219978, 0.21129421280329289, -0.1126710635661351, -0.06225262692666054, -0.1878141469439689, -0.1849983841449806, -0.1296341565689844, -0.03534276803296437, -0.14485672164367364, -0.0765322761393628, -0.07496613604140938, 0.08563587926258302, -0.20330060109866352, -0.23896660361904876, -5.480227626391993e-17, 0.12754598476560536, -0.20325217669405699, -0.0888369230304369, 0.056501798424177824, 0.0769202187625911, -0.39144106374244736, 0.029673354560221913, 0.23239331501003585, -0.030929207981750508, 0.19064991120091332, -0.16056894750873424, -0.19327706567417866, 0.08278653364324248, -0.08329036919696806, 0.11070931256493881, 0.19336672702597255, 0.10168980315227841, 0.2215131854226776, 0.3117080772735427], [0.10445960869774343, -0.1255550885846904, 0.19387141929724372, -0.21462082662266055, -0.19762311167865723, 0.11231794151669094, -0.05407385448164954, 0.03843087952475619, -0.14513745123105784, 0.16801503110152174, -0.009025106188287483, 0.07565798184631803, -0.1794047840516147, 0.08104075440443023, 0.1124779441506994, -0.06394603694651227, -0.03230875232158947, -0.15737535771742883, 0.27566723114776914, 0.07425380213682625, 0.2235952016933315, -0.089659432658935, 0.1618184872408776, 0.1524951560295286, 0.05260089073990294, 0.21591824101009166, -0.07428971980877214, -0.16889767122577867, 0.04142736709407426, 0.09475932027865107, 0.010999992048335898, -0.12921710265459596, -0.003195752466993962, -0.07875561919582426, -0.03903038418516489, 0.07599609009992375, 0.1055157426206281, -0.26325719022462013, -0.03445270423667616, -0.09275829511551506, -0.1335529916057481, 0.1628082794306847, 0.19981201109819827, -0.09941899737298193, 0.15851682444229642, 0.264238189667748, 0.1778451770782038, -0.1661410003787037, 0.2015048124215114, -0.05331811819357766, -0.0743897908053825, -0.19630051501526896, 0.00011418553184582855, -0.19638761839563845, -0.11677475259120568, -0.007250159211813089, 0.1591851560821359, 0.17372626889022982, -0.09328893253780567, 0.2112594702446262], [0.10020564086748751, 0.2370372567003058, 0.16607652535640238, 0.06777276503594963, 0.30563684044746764, 0.1264544215480935, -0.18288036686696985, 0.20941744515617197, 0.4229209546522733, 0.14069702895035582, -0.3065155368018769, -0.09917650659319154, 0.12492902411043243, 0.14552802371860554, -0.16887320974825115, 0.011147948474778138, -0.10853860254238411, 0.08021365395483109, 0.30499619049224486, 0.06071523571773768, 0.31272624715325537, -0.0953663048108452, 0.10803074341519593, -0.03452448385219841, -0.07686851019797801, 0.1824242228212048, 0.0679083506188465, -0.03284076890380026, -0.007629150141423043, -0.16446549909475675, -0.1712847654562077, 0.03558184907040647, 0.07963368880086918, 0.07614492117431947, -0.15974214840410078, 0.10717593799080545, 0.34061901499368696, -0.11987489609290647, -0.29916622023860706, 0.11373359590634938, -0.012145722820241834, 0.1655483499099733, 0.03618145191065863, 0.1344667866560732, 0.290214319089366, 0.2678443282193539, -0.0961691021936009, 0.25919138337917647, 0.0036094030132492205, 0.15401516060908416, -0.05946717910250476, 0.27436648259910923, -0.08279000903602077, -0.1466321921798979, -0.16134801227005738, -0.02876606541125915, -0.5523328679683784, 0.1107042107221748, 0.013238484855781812, -0.07701190526215172], [-0.19674709644703994, -0.08863747854798187, 0.2137657421358398, -0.113933886252212, 0.14108956296932829, -0.06435424354497249, -0.18807537446040865, 0.022692702928844538, 0.023372777891951396, 0.23857483748019637, 0.0017695011791794444, -0.08531553323907017, -0.10937479908383073, 0.03855931342679439, -0.03172050181362499, 0.15500465861941198, 0.14207668917835897, -0.012987248323952575, -0.1854681839304145, 0.3639719403659501, -0.17398707463446342, -0.20234463158457083, 0.05383695402338061, 0.06272186115939557, 0.1097615624088869, 0.023455700015786105, 0.0923646309029992, -0.1439953024242657, 0.17169936876518063, 0.058015094808241546, -0.05520966351748848, 0.033501269996796, -0.08054525003308961, 0.1770693029766809, 0.020344772080348555, -0.22918402488890646, 0.03781229650695171, 0.253965643506462, 0.03315506886078107, 0.19833313523107768, -0.08182138633770333, -0.15844866992986087, -0.15324331305008457, -0.004261267129485544, -0.24381527939355024, -0.18573190846237495, 0.16099516949262466, 0.21267350565385285, 0.1349268613785187, -0.1792616091413007, -1.253396702122747e-05, -0.25669059055851506, 0.11150945573080472, 0.20446927541496113, -0.023485278250706634, -0.26522314693813487, 